{"learner":{"attributes":{"scikit_learn":"{\"_estimator_type\": \"regressor\"}"},"feature_names":[],"feature_types":[],"gradient_booster":{"model":{"gbtree_model_param":{"num_parallel_tree":"1","num_trees":"100"},"iteration_indptr":[0,1,2,3,4,5,6,7,8,9,10,11,12,13,14,15,16,17,18,19,20,21,22,23,24,25,26,27,28,29,30,31,32,33,34,35,36,37,38,39,40,41,42,43,44,45,46,47,48,49,50,51,52,53,54,55,56,57,58,59,60,61,62,63,64,65,66,67,68,69,70,71,72,73,74,75,76,77,78,79,80,81,82,83,84,85,86,87,88,89,90,91,92,93,94,95,96,97,98,99,100],"tree_info":[0,0,0,0,0,0,0,0,0,0,0,0,0,0,0,0,0,0,0,0,0,0,0,0,0,0,0,0,0,0,0,0,0,0,0,0,0,0,0,0,0,0,0,0,0,0,0,0,0,0,0,0,0,0,0,0,0,0,0,0,0,0,0,0,0,0,0,0,0,0,0,0,0,0,0,0,0,0,0,0,0,0,0,0,0,0,0,0,0,0,0,0,0,0,0,0,0,0,0,0],"trees":[{"base_weights":[4.216517E-8,2.0735814E-1,-5.262298E-1,7.65886E-2,3.978744E-1,-1.4142294E-1,-7.729026E-1,1.94026E-1,-1.3835588E-1,-3.8396186E-1,4.429189E-1,9.750237E-2,-3.5420254E-1,-3.1840196E-1,-8.602883E-1,2.446296E-1,-1.4121087E-1,-7.264832E-1,-5.689754E-2,6.09327E-2,-5.4069364E-1,1.0900309E0,4.0688202E-1,-5.8752544E-2,5.533797E-1,-4.458598E-1,1.7851697E-1,-4.6465015E-1,1.342794E-1,-1.0282111E0,-6.156287E-1,1.5979573E-2,3.259031E-1,2.537615E-1,-3.3574152E-1,-1.0591645E0,-1.905871E-1,-6.5545887E-1,-2.4249048E-3,1.7728281E-1,-5.4020684E-2,-3.857548E-1,-8.9830065E-1,2.1660542E0,8.3211863E-1,3.8372585E-1,1.1230955E0,-8.6252445E-1,2.0081516E-2,2.4931696E-1,9.132525E-1,-3.3264148E-1,-9.1778374E-1,-1.1822995E-1,2.4682121E-1,-3.2734197E-1,-9.777374E-1,5.5167437E-2,2.238873E-1,-1.4434656E0,-9.053054E-1,-7.627926E-1,-1.9232225E-1,1.2669261E-1,-3.8230788E-2,4.079564E-1,9.016015E-2,-9.4994426E-2,1.2395917E-1,-6.674158E-2,-1.9388033E-1,-2.655762E-1,-5.0306565E-1,-3.1976703E-1,-9.850135E-3,-1.3283014E-1,-3.6938334E-1,2.164083E-1,-1.20326625E-2,5.734622E-2,4.8369452E-2,-2.476302E-2,-8.579435E-3,-5.7652105E-2,-1.5165123E-1,-2.4238911E-1,-3.4490824E-1,6.1758417E-1,6.6398966E-1,1.9240696E-2,3.1440043E-1,1.0915812E-1,3.6373025E-1,2.2783862E-1,5.154398E-1,-3.179413E-1,-2.2734986E-1,-9.157468E-2,4.56017E-2,-2.7588906E-4,1.3398895E-1,2.176818E-1,3.2871795E-1,-2.596653E-1,-6.285586E-2,-3.4726158E-1,-1.7639944E-1,4.080098E-2,1.2141638E-1,-7.7391505E-2,-2.3996411E-1,-3.329522E-1,-1.8553644E-1,2.98167E-2,-9.868691E-3,5.6634948E-2,7.316185E-2,-2.0411177E-1,-4.8308215E-1,-2.9131225E-1,-5.7292916E-2,-2.9659435E-1,-1.6012982E-1,6.984838E-2,-1.3035668E-1],"categories":[],"categories_nodes":[],"categories_segments":[],"categories_sizes":[],"default_left":[0,0,0,0,0,0,0,0,0,0,0,0,0,0,0,0,0,0,0,0,0,0,0,0,0,0,0,0,0,0,0,0,0,0,0,0,0,0,0,0,0,0,0,0,0,0,0,0,0,0,0,0,0,0,0,0,0,0,0,0,0,0,0,0,0,0,0,0,0,0,0,0,0,0,0,0,0,0,0,0,0,0,0,0,0,0,0,0,0,0,0,0,0,0,0,0,0,0,0,0,0,0,0,0,0,0,0,0,0,0,0,0,0,0,0,0,0,0,0,0,0,0,0,0,0],"id":0,"left_children":[1,3,5,7,9,11,13,15,17,19,21,23,25,27,29,31,33,35,37,39,41,43,45,47,49,51,53,55,57,59,61,63,65,67,69,71,73,75,77,79,81,83,85,87,89,91,93,95,97,99,101,103,105,-1,107,109,111,113,115,117,119,121,123,-1,-1,-1,-1,-1,-1,-1,-1,-1,-1,-1,-1,-1,-1,-1,-1,-1,-1,-1,-1,-1,-1,-1,-1,-1,-1,-1,-1,-1,-1,-1,-1,-1,-1,-1,-1,-1,-1,-1,-1,-1,-1,-1,-1,-1,-1,-1,-1,-1,-1,-1,-1,-1,-1,-1,-1,-1,-1,-1,-1,-1,-1],"loss_changes":[4.9982383E4,8.186169E3,1.2289934E4,4.918381E3,4.710115E3,2.5713408E3,3.1333477E3,2.1375566E3,3.298081E3,5.0807922E2,2.9484512E3,1.6972318E3,1.3063643E3,8.425062E2,2.7180938E3,2.0344263E3,1.2698477E3,1.4929146E3,1.971603E3,2.5408396E1,2.981875E2,1.8492534E3,1.9861719E3,1.1244222E3,6.6528845E2,1.2192974E3,1.5372983E2,6.7727856E2,2.2020435E1,2.0013867E3,1.6778428E3,1.6730974E3,2.1181855E3,4.961375E2,3.8932886E2,5.535967E2,4.4306992E2,6.172031E2,1.5117802E3,1.7936134E-1,6.908548E-1,8.708734E1,3.604309E1,1.9868164E0,8.9223755E2,1.9098066E3,8.1031885E2,3.193274E1,6.936594E2,1.628388E2,9.456494E1,1.2078171E3,3.4848242E2,0E0,6.1363495E1,2.4856201E2,9.566235E1,6.4366302E0,9.761505E-1,1.1394258E3,1.421709E3,1.0333359E3,7.157522E2,0E0,0E0,0E0,0E0,0E0,0E0,0E0,0E0,0E0,0E0,0E0,0E0,0E0,0E0,0E0,0E0,0E0,0E0,0E0,0E0,0E0,0E0,0E0,0E0,0E0,0E0,0E0,0E0,0E0,0E0,0E0,0E0,0E0,0E0,0E0,0E0,0E0,0E0,0E0,0E0,0E0,0E0,0E0,0E0,0E0,0E0,0E0,0E0,0E0,0E0,0E0,0E0,0E0,0E0,0E0,0E0,0E0,0E0,0E0,0E0,0E0,0E0],"parents":[2147483647,0,0,1,1,2,2,3,3,4,4,5,5,6,6,7,7,8,8,9,9,10,10,11,11,12,12,13,13,14,14,15,15,16,16,17,17,18,18,19,19,20,20,21,21,22,22,23,23,24,24,25,25,26,26,27,27,28,28,29,29,30,30,31,31,32,32,33,33,34,34,35,35,36,36,37,37,38,38,39,39,40,40,41,41,42,42,43,43,44,44,45,45,46,46,47,47,48,48,49,49,50,50,51,51,52,52,54,54,55,55,56,56,57,57,58,58,59,59,60,60,61,61,62,62],"right_children":[2,4,6,8,10,12,14,16,18,20,22,24,26,28,30,32,34,36,38,40,42,44,46,48,50,52,54,56,58,60,62,64,66,68,70,72,74,76,78,80,82,84,86,88,90,92,94,96,98,100,102,104,106,-1,108,110,112,114,116,118,120,122,124,-1,-1,-1,-1,-1,-1,-1,-1,-1,-1,-1,-1,-1,-1,-1,-1,-1,-1,-1,-1,-1,-1,-1,-1,-1,-1,-1,-1,-1,-1,-1,-1,-1,-1,-1,-1,-1,-1,-1,-1,-1,-1,-1,-1,-1,-1,-1,-1,-1,-1,-1,-1,-1,-1,-1,-1,-1,-1,-1,-1,-1,-1],"split_conditions":[-2.806662E-1,-1.0799227E0,-1.2921435E-1,3.4137768E-1,3.346646E-1,-3.112546E-1,-3.230767E-1,5.000531E-1,-2.4333695E-2,2.857126E-2,3.2854265E-1,-5.0567114E-1,1.0894597E0,8.3781844E-1,6.7163296E-2,-5.354887E-1,-2.430838E-1,2.1622437E-1,-2.8441906E-1,-1.9191992E-1,-1.492025E-1,4.5234388E-1,1.0697398E-2,3.9125574E-1,-7.98876E-1,-3.3178282E-1,7.286643E-2,3.7717885E-1,-1.8043782E-1,-4.5738807E-1,5.129888E-1,6.7951936E-1,-2.9087174E-1,5.0461084E-1,-4.813322E-2,3.1141683E-1,5.251685E-2,-3.0630526E-1,-2.2818078E-1,-2.2959135E-1,-1.7193256E-1,-8.98091E-2,-4.2983457E-2,-1.6304795E-1,-4.9856685E-2,3.1618652E-1,4.343152E-1,-4.3273318E-1,-5.844971E-1,1.0241735E-1,-4.9107867E-1,-6.74557E-1,1.5407045E-1,-1.1822995E-1,5.152732E-2,1.3068702E-2,1.4402951E0,-1.879615E-1,-2.3636416E-1,3.372923E-1,-9.300789E-2,-8.3293617E-1,-2.9729342E-1,1.2669261E-1,-3.8230788E-2,4.079564E-1,9.016015E-2,-9.4994426E-2,1.2395917E-1,-6.674158E-2,-1.9388033E-1,-2.655762E-1,-5.0306565E-1,-3.1976703E-1,-9.850135E-3,-1.3283014E-1,-3.6938334E-1,2.164083E-1,-1.20326625E-2,5.734622E-2,4.8369452E-2,-2.476302E-2,-8.579435E-3,-5.7652105E-2,-1.5165123E-1,-2.4238911E-1,-3.4490824E-1,6.1758417E-1,6.6398966E-1,1.9240696E-2,3.1440043E-1,1.0915812E-1,3.6373025E-1,2.2783862E-1,5.154398E-1,-3.179413E-1,-2.2734986E-1,-9.157468E-2,4.56017E-2,-2.7588906E-4,1.3398895E-1,2.176818E-1,3.2871795E-1,-2.596653E-1,-6.285586E-2,-3.4726158E-1,-1.7639944E-1,4.080098E-2,1.2141638E-1,-7.7391505E-2,-2.3996411E-1,-3.329522E-1,-1.8553644E-1,2.98167E-2,-9.868691E-3,5.6634948E-2,7.316185E-2,-2.0411177E-1,-4.8308215E-1,-2.9131225E-1,-5.7292916E-2,-2.9659435E-1,-1.6012982E-1,6.984838E-2,-1.3035668E-1],"split_indices":[18,356,361,235,129,273,179,59,454,186,377,64,37,132,422,64,361,155,402,6,298,40,365,259,13,320,23,137,3,25,349,331,125,59,100,327,14,18,17,0,0,3,3,0,72,201,27,2,170,390,20,145,7,0,12,80,1,0,0,144,204,303,388,0,0,0,0,0,0,0,0,0,0,0,0,0,0,0,0,0,0,0,0,0,0,0,0,0,0,0,0,0,0,0,0,0,0,0,0,0,0,0,0,0,0,0,0,0,0,0,0,0,0,0,0,0,0,0,0,0,0,0,0,0,0],"split_type":[0,0,0,0,0,0,0,0,0,0,0,0,0,0,0,0,0,0,0,0,0,0,0,0,0,0,0,0,0,0,0,0,0,0,0,0,0,0,0,0,0,0,0,0,0,0,0,0,0,0,0,0,0,0,0,0,0,0,0,0,0,0,0,0,0,0,0,0,0,0,0,0,0,0,0,0,0,0,0,0,0,0,0,0,0,0,0,0,0,0,0,0,0,0,0,0,0,0,0,0,0,0,0,0,0,0,0,0,0,0,0,0,0,0,0,0,0,0,0,0,0,0,0,0,0],"sum_hessian":[4.58056E5,3.28581E5,1.29475E5,1.94843E5,1.33738E5,5.0577E4,7.8898E4,1.26001E5,6.8842E4,7.285E3,1.26453E5,2.3825E4,2.6752E4,1.2724E4,6.6174E4,1.09476E5,1.6525E4,8.374E3,6.0468E4,1.898E3,5.387E3,6.669E3,1.19784E5,1.7744E4,6.081E3,2.2825E4,3.927E3,9.617E3,3.107E3,3.9239E4,2.6935E4,2.8709E4,8.0767E4,5.453E3,1.1072E4,5.166E3,3.208E3,5.043E3,5.5425E4,9.43E2,9.55E2,3.76E3,1.627E3,1.288E3,5.381E3,1.16034E5,3.75E3,1.584E3,1.616E4,3.297E3,2.784E3,1.841E4,4.415E3,4.18E2,3.509E3,7.588E3,2.029E3,1.651E3,1.456E3,8.959E3,3.028E4,1.9986E4,6.949E3,7.489E3,2.122E4,1.933E3,7.8834E4,1.191E3,4.262E3,8.114E3,2.958E3,4.033E3,1.133E3,4.89E2,2.719E3,3.684E3,1.359E3,2.742E3,5.2683E4,5E2,4.43E2,4.49E2,5.06E2,1.438E3,2.322E3,1.2E3,4.27E2,4.07E2,8.81E2,1.181E3,4.2E3,1.13319E5,2.715E3,2.329E3,1.421E3,5.46E2,1.038E3,4.662E3,1.1498E4,1.454E3,1.843E3,1.375E3,1.409E3,3.454E3,1.4956E4,2.555E3,1.86E3,2.063E3,1.446E3,6.618E3,9.7E2,1.482E3,5.47E2,1.099E3,5.52E2,5.32E2,9.24E2,1.608E3,7.351E3,2.7728E4,2.552E3,1.0061E4,9.925E3,2.522E3,4.427E3],"tree_param":{"num_deleted":"0","num_feature":"512","num_nodes":"125","size_leaf_vector":"1"}},{"base_weights":[-4.0490604E-6,-4.3892637E-1,1.254377E-1,-6.681278E-1,-2.8044856E-1,1.872169E-1,-1.3410166E-1,-7.685333E-1,-3.2442048E-1,-3.9722222E-1,-5.1211542E-3,3.241646E-1,1.08524434E-1,3.5586685E-2,-4.0362424E-1,-1.3763765E-1,-8.2800865E-1,-2.0495467E-1,-1.351983E0,-7.9776186E-1,-3.2338995E-1,3.9404836E-1,-1.1751026E-1,-1.23830415E-1,3.6938342E-1,3.2219225E-1,3.9459795E-2,3.9476514E-1,-8.6698696E-2,-5.9335095E-1,-1.4870992E-1,1.08364224E-1,-3.2451543E-1,-1.3738686E0,-7.676352E-1,1.6520822E-1,-3.9842102E-1,-4.7639963E-1,-3.1904596E-1,-3.668508E-1,-1.0954282E0,-1.8022195E-1,-5.424785E-1,1.756068E-1,7.8876835E-1,1.3989902E-1,-2.0869218E-1,2.6116538E-1,-4.9490246E-1,2.6754278E-1,6.2231445E-1,3.699198E-1,-3.3920765E-1,6.6926974E-1,1.1745878E-2,9.659981E-1,2.692367E-1,-2.9977155E-1,9.964494E-2,-4.801121E-1,-8.697369E-1,1.5994608E-1,-3.759205E-1,-1.23595685E-1,-2.2201553E-2,-4.6867922E-1,-2.9313138E-1,-2.181747E-1,-3.9547488E-1,1.0263828E-1,-5.5548042E-2,-1.3645309E-1,3.9676353E-2,-1.9163053E-1,-5.610735E-2,-2.78775E-1,-3.8085788E-1,-8.471876E-2,5.2521624E-2,-1.3782507E-1,-2.7442598E-1,-5.8294766E-2,7.9950914E-2,3.130348E-1,1.9044845E-1,8.779527E-2,5.0082095E-3,-8.854927E-2,1.9378027E-2,3.2777092E-1,1.6253658E-2,-2.0719124E-1,-5.571187E-2,1.7780966E-1,6.024135E-2,6.1693456E-2,2.2263859E-1,9.95941E-2,3.1813428E-1,-1.9488241E-1,-5.4941963E-2,1.2682967E-1,3.4797224E-1,-3.1610494E-3,2.0713867E-1,2.1030025E-1,3.1735963E-1,2.2342642E-1,6.113058E-2,-2.4938199E-1,-6.357358E-2,3.878644E-3,2.2224209E-1,-1.9974966E-1,-6.661007E-2,-2.4461439E-1,-3.760552E-1,1.9499639E-1,3.0146634E-2,-1.518276E-1,-2.067101E-2],"categories":[],"categories_nodes":[],"categories_segments":[],"categories_sizes":[],"default_left":[0,0,0,0,0,0,0,0,0,0,0,0,0,0,0,0,0,0,0,0,0,0,0,0,0,0,0,0,0,0,0,0,0,0,0,0,0,0,0,0,0,0,0,0,0,0,0,0,0,0,0,0,0,0,0,0,0,0,0,0,0,0,0,0,0,0,0,0,0,0,0,0,0,0,0,0,0,0,0,0,0,0,0,0,0,0,0,0,0,0,0,0,0,0,0,0,0,0,0,0,0,0,0,0,0,0,0,0,0,0,0,0,0,0,0,0,0,0,0,0,0],"id":1,"left_children":[1,3,5,7,9,11,13,15,17,19,21,23,25,27,29,31,33,35,37,39,41,43,45,47,49,51,53,55,57,59,61,-1,63,65,67,69,71,-1,-1,73,75,77,79,81,83,85,87,89,91,93,95,97,99,101,103,105,107,109,111,113,115,117,119,-1,-1,-1,-1,-1,-1,-1,-1,-1,-1,-1,-1,-1,-1,-1,-1,-1,-1,-1,-1,-1,-1,-1,-1,-1,-1,-1,-1,-1,-1,-1,-1,-1,-1,-1,-1,-1,-1,-1,-1,-1,-1,-1,-1,-1,-1,-1,-1,-1,-1,-1,-1,-1,-1,-1,-1,-1,-1],"loss_changes":[2.52203E4,3.698E3,5.712103E3,1.4360273E3,1.9353267E3,3.1009863E3,3.1326216E3,1.208457E3,1.1550039E3,1.2497227E3,8.043377E2,2.1272588E3,2.6967356E3,1.8462192E3,1.27977E3,2.589079E2,9.689551E2,6.039155E2,6.503906E1,8.4334326E2,1.1194028E3,3.3949493E2,3.2838953E2,1.3755967E3,2.4566943E3,1.4092764E3,2.4105635E3,7.652728E2,1.245092E3,4.7439844E2,7.9203723E2,0E0,4.4232117E1,2.1748633E2,5.884404E2,1.7951553E2,1.6587958E2,0E0,0E0,1.3136707E2,1.1136377E2,7.8369574E2,4.3573096E2,8.5357346E1,5.4343018E1,6.887557E1,2.441568E2,8.132358E2,2.9660388E2,1.4755488E3,1.3666865E3,1.090439E3,1.4545377E2,7.035261E2,2.0006528E3,4.6072998E1,2.7237134E2,6.8300903E2,9.3010754E2,5.157744E2,9.09314E1,1.3946971E2,2.5993665E2,0E0,0E0,0E0,0E0,0E0,0E0,0E0,0E0,0E0,0E0,0E0,0E0,0E0,0E0,0E0,0E0,0E0,0E0,0E0,0E0,0E0,0E0,0E0,0E0,0E0,0E0,0E0,0E0,0E0,0E0,0E0,0E0,0E0,0E0,0E0,0E0,0E0,0E0,0E0,0E0,0E0,0E0,0E0,0E0,0E0,0E0,0E0,0E0,0E0,0E0,0E0,0E0,0E0,0E0,0E0,0E0,0E0,0E0],"parents":[2147483647,0,0,1,1,2,2,3,3,4,4,5,5,6,6,7,7,8,8,9,9,10,10,11,11,12,12,13,13,14,14,15,15,16,16,17,17,18,18,19,19,20,20,21,21,22,22,23,23,24,24,25,25,26,26,27,27,28,28,29,29,30,30,32,32,33,33,34,34,35,35,36,36,39,39,40,40,41,41,42,42,43,43,44,44,45,45,46,46,47,47,48,48,49,49,50,50,51,51,52,52,53,53,54,54,55,55,56,56,57,57,58,58,59,59,60,60,61,61,62,62],"right_children":[2,4,6,8,10,12,14,16,18,20,22,24,26,28,30,32,34,36,38,40,42,44,46,48,50,52,54,56,58,60,62,-1,64,66,68,70,72,-1,-1,74,76,78,80,82,84,86,88,90,92,94,96,98,100,102,104,106,108,110,112,114,116,118,120,-1,-1,-1,-1,-1,-1,-1,-1,-1,-1,-1,-1,-1,-1,-1,-1,-1,-1,-1,-1,-1,-1,-1,-1,-1,-1,-1,-1,-1,-1,-1,-1,-1,-1,-1,-1,-1,-1,-1,-1,-1,-1,-1,-1,-1,-1,-1,-1,-1,-1,-1,-1,-1,-1,-1,-1,-1,-1],"split_conditions":[-1.1323765E-1,2.1430427E-1,7.873249E-2,5.099537E-1,-1.2022268E0,1.068254E-1,-2.998947E-1,-1.6464518E-1,7.697086E-1,-4.5706388E-1,2.8624552E-1,2.7438316E-1,-2.4033146E-1,2.9766915E-2,-1.8144262E-1,-2.520514E-1,-6.4917076E-1,1.8845163E-2,-2.7660742E-1,-3.14635E-1,3.8484335E-1,2.873614E-1,9.509263E-2,2.6334897E-3,-4.59473E-1,3.961603E-2,-5.4863614E-1,3.851351E-2,-4.1932946E-1,4.4399325E-2,4.1414633E-1,1.08364224E-1,1.7875293E-1,3.067895E-1,4.3095818E-1,-1.7254661E-1,2.2056295E-1,-4.7639963E-1,-3.1904596E-1,-2.272807E-1,9.7016823E-1,-5.1906496E-1,-3.4314805E-1,1.0489562E0,-3.169938E-1,-1.4780883E0,1.3160934E-1,-2.8134292E-1,-4.441605E-1,-5.5501837E-1,1.7760105E-1,-2.9606625E-1,-3.5013664E-1,-4.2788038E-1,7.7591814E-2,-2.5539365E-1,-4.271788E-1,4.4121256E-1,-1.9895044E-1,-2.615642E-1,-1.2612607E-1,-9.498812E-2,-3.0474135E-1,-1.23595685E-1,-2.2201553E-2,-4.6867922E-1,-2.9313138E-1,-2.181747E-1,-3.9547488E-1,1.0263828E-1,-5.5548042E-2,-1.3645309E-1,3.9676353E-2,-1.9163053E-1,-5.610735E-2,-2.78775E-1,-3.8085788E-1,-8.471876E-2,5.2521624E-2,-1.3782507E-1,-2.7442598E-1,-5.8294766E-2,7.9950914E-2,3.130348E-1,1.9044845E-1,8.779527E-2,5.0082095E-3,-8.854927E-2,1.9378027E-2,3.2777092E-1,1.6253658E-2,-2.0719124E-1,-5.571187E-2,1.7780966E-1,6.024135E-2,6.1693456E-2,2.2263859E-1,9.95941E-2,3.1813428E-1,-1.9488241E-1,-5.4941963E-2,1.2682967E-1,3.4797224E-1,-3.1610494E-3,2.0713867E-1,2.1030025E-1,3.1735963E-1,2.2342642E-1,6.113058E-2,-2.4938199E-1,-6.357358E-2,3.878644E-3,2.2224209E-1,-1.9974966E-1,-6.661007E-2,-2.4461439E-1,-3.760552E-1,1.9499639E-1,3.0146634E-2,-1.518276E-1,-2.067101E-2],"split_indices":[411,326,434,349,356,84,273,487,238,31,151,352,361,188,3,6,146,36,0,3,63,69,236,285,85,100,375,14,141,36,108,0,8,41,15,6,8,0,0,6,73,508,320,1,0,11,7,181,98,428,326,297,3,141,80,0,21,349,176,314,6,57,223,0,0,0,0,0,0,0,0,0,0,0,0,0,0,0,0,0,0,0,0,0,0,0,0,0,0,0,0,0,0,0,0,0,0,0,0,0,0,0,0,0,0,0,0,0,0,0,0,0,0,0,0,0,0,0,0,0,0],"split_type":[0,0,0,0,0,0,0,0,0,0,0,0,0,0,0,0,0,0,0,0,0,0,0,0,0,0,0,0,0,0,0,0,0,0,0,0,0,0,0,0,0,0,0,0,0,0,0,0,0,0,0,0,0,0,0,0,0,0,0,0,0,0,0,0,0,0,0,0,0,0,0,0,0,0,0,0,0,0,0,0,0,0,0,0,0,0,0,0,0,0,0,0,0,0,0,0,0,0,0,0,0,0,0,0,0,0,0,0,0,0,0,0,0,0,0,0,0,0,0,0,0],"sum_hessian":[4.58056E5,1.01812E5,3.56244E5,4.1618E4,6.0194E4,2.8775E5,6.8494E4,3.2208E4,9.41E3,4.2267E4,1.7927E4,1.05006E5,1.82744E5,4.2032E4,2.6462E4,2.775E3,2.9433E4,8.431E3,9.79E2,6.577E3,3.569E4,3.938E3,1.3989E4,9.627E3,9.5379E4,4.4639E4,1.38105E5,1.0675E4,3.1357E4,1.517E4,1.1292E4,7.56E2,2.019E3,2.929E3,2.6504E4,2.894E3,5.537E3,5.36E2,4.43E2,2.688E3,3.889E3,2.1586E4,1.4104E4,2.536E3,1.402E3,3.659E3,1.033E4,4.725E3,4.902E3,6.8001E4,2.7378E4,4.1635E4,3.004E3,5.82E3,1.32285E5,1.922E3,8.753E3,1.4629E4,1.6728E4,1.0763E4,4.407E3,4.788E3,6.504E3,1.496E3,5.23E2,1.984E3,9.45E2,2.4695E4,1.809E3,1.923E3,9.71E2,5.005E3,5.32E2,1.069E3,1.619E3,1.993E3,1.896E3,1.6765E4,4.821E3,1.1533E4,2.571E3,5E2,2.036E3,5.26E2,8.76E2,1.633E3,2.026E3,7.847E3,2.483E3,9.41E2,3.784E3,3.001E3,1.901E3,1.1579E4,5.6422E4,6.115E3,2.1263E4,3.9468E4,2.167E3,1.004E3,2E3,3.875E3,1.945E3,1.28081E5,4.204E3,4.97E2,1.425E3,1.058E3,7.695E3,2.074E3,1.2555E4,1.4736E4,1.992E3,6.258E3,4.505E3,3.863E3,5.44E2,5.17E2,4.271E3,4.567E3,1.937E3],"tree_param":{"num_deleted":"0","num_feature":"512","num_nodes":"121","size_leaf_vector":"1"}},{"base_weights":[-6.62978E-6,1.0418239E-1,-2.6441577E-1,7.5322E-4,1.8257947E-1,8.486089E-3,-3.5471737E-1,-4.5085076E-2,2.8197676E-1,1.0521593E-1,3.7090456E-1,-5.6763154E-1,4.9468655E-2,-3.9376444E-1,-1.765448E-2,-1.1859687E-1,1.5784244E-1,4.681997E-1,-1.3419664E-1,3.0649278E-1,1.9997744E-2,6.4398736E-1,2.4749528E-1,-7.133354E-1,-4.148381E-1,2.7038816E-1,-3.880886E-2,-5.5295557E-1,-3.193979E-1,6.3042544E-2,-3.3813053E-1,1.073021E0,-1.320714E-1,9.78153E-2,7.808084E-1,1.8961269E-1,7.085517E-1,-4.9881282E-1,4.526436E-2,2.309158E-1,8.0231005E-1,1.7862786E-1,-8.420766E-2,7.289595E-1,1.6818391E-1,5.378308E-1,1.6284181E-1,-1.8683738E-1,-2.4077266E-1,-1.5578328E-1,-9.341796E-2,4.6629363E-1,1.2686463E-1,-6.3239485E-2,2.7416277E-1,-6.113674E-1,-1.1486714E-1,-2.0391491E-1,-4.257687E-1,2.2203358E-2,2.020464E-1,-6.1812377E-1,-2.0086046E-1,2.933896E-1,3.4994936E-1,-1.6589475E-1,-3.0330615E-2,1.1759468E-2,2.3429097E-1,3.3295313E-1,1.8851678E-1,1.0503873E-1,-5.1789936E-2,1.5838116E-1,3.208477E-1,-1.4229847E-1,-1.5664324E-1,-6.008055E-3,7.271071E-2,2.286819E-2,1.1190219E-1,1.8160552E-1,2.889216E-1,-1.3768217E-2,1.184133E-1,-7.6717615E-2,1.4814704E-2,2.7487445E-1,1.524637E-1,2.3493942E-2,1.6109425E-1,9.430619E-2,2.8503385E-1,-4.748975E-2,7.486346E-2,3.0032745E-1,1.1878933E-1,-5.5032495E-2,6.041988E-2,-2.984212E-2,1.24491766E-1,-1.5922096E-1,-2.645765E-1,-7.09931E-2,2.8859878E-2,4.4690266E-2,-7.3129624E-2,-1.4859614E-1,-4.08915E-2,-5.4830085E-2,1.5606698E-2,-2.387509E-1,-1.7084874E-1,-7.7905044E-2,-2.4676127E-2],"categories":[],"categories_nodes":[],"categories_segments":[],"categories_sizes":[],"default_left":[0,0,0,0,0,0,0,0,0,0,0,0,0,0,0,0,0,0,0,0,0,0,0,0,0,0,0,0,0,0,0,0,0,0,0,0,0,0,0,0,0,0,0,0,0,0,0,0,0,0,0,0,0,0,0,0,0,0,0,0,0,0,0,0,0,0,0,0,0,0,0,0,0,0,0,0,0,0,0,0,0,0,0,0,0,0,0,0,0,0,0,0,0,0,0,0,0,0,0,0,0,0,0,0,0,0,0,0,0,0,0,0,0,0,0],"id":2,"left_children":[1,3,5,7,9,11,13,15,17,19,21,23,25,27,29,31,33,35,37,39,41,43,45,47,49,51,53,55,57,59,61,63,65,67,69,71,73,75,77,79,81,83,85,87,89,91,93,-1,-1,-1,-1,95,97,99,-1,101,103,105,107,109,-1,111,113,-1,-1,-1,-1,-1,-1,-1,-1,-1,-1,-1,-1,-1,-1,-1,-1,-1,-1,-1,-1,-1,-1,-1,-1,-1,-1,-1,-1,-1,-1,-1,-1,-1,-1,-1,-1,-1,-1,-1,-1,-1,-1,-1,-1,-1,-1,-1,-1,-1,-1,-1,-1],"loss_changes":[1.2618824E4,2.6643223E3,3.1907422E3,1.8263049E3,2.7231318E3,7.601063E2,1.2803906E3,1.8172616E3,1.5389235E3,2.2724531E3,1.833981E3,4.7301514E1,5.861499E2,1.0319639E3,2.6124792E2,1.4359941E3,1.2113302E3,9.184087E2,4.0172427E2,1.4765259E3,1.5386217E3,6.847217E2,9.2124023E2,8.331787E0,1.1139023E1,2.412132E2,4.9988174E2,7.102705E2,7.299155E2,2.011709E2,7.797516E1,7.744629E0,1.1526073E3,1.183245E3,1.4208325E2,3.6958075E2,4.7950293E2,9.0911865E-1,5.2961617E1,7.516189E2,1.6444678E2,1.790382E3,1.2871993E3,5.937217E2,8.50719E1,7.7935156E2,8.082086E2,0E0,0E0,0E0,0E0,1.360597E2,1.14616356E2,3.62865E2,0E0,5.3384766E2,8.399437E1,4.007484E2,6.226968E2,4.6246803E1,0E0,5.319519E0,9.501976E0,0E0,0E0,0E0,0E0,0E0,0E0,0E0,0E0,0E0,0E0,0E0,0E0,0E0,0E0,0E0,0E0,0E0,0E0,0E0,0E0,0E0,0E0,0E0,0E0,0E0,0E0,0E0,0E0,0E0,0E0,0E0,0E0,0E0,0E0,0E0,0E0,0E0,0E0,0E0,0E0,0E0,0E0,0E0,0E0,0E0,0E0,0E0,0E0,0E0,0E0,0E0,0E0],"parents":[2147483647,0,0,1,1,2,2,3,3,4,4,5,5,6,6,7,7,8,8,9,9,10,10,11,11,12,12,13,13,14,14,15,15,16,16,17,17,18,18,19,19,20,20,21,21,22,22,23,23,24,24,25,25,26,26,27,27,28,28,29,29,30,30,31,31,32,32,33,33,34,34,35,35,36,36,37,37,38,38,39,39,40,40,41,41,42,42,43,43,44,44,45,45,46,46,51,51,52,52,53,53,55,55,56,56,57,57,58,58,59,59,61,61,62,62],"right_children":[2,4,6,8,10,12,14,16,18,20,22,24,26,28,30,32,34,36,38,40,42,44,46,48,50,52,54,56,58,60,62,64,66,68,70,72,74,76,78,80,82,84,86,88,90,92,94,-1,-1,-1,-1,96,98,100,-1,102,104,106,108,110,-1,112,114,-1,-1,-1,-1,-1,-1,-1,-1,-1,-1,-1,-1,-1,-1,-1,-1,-1,-1,-1,-1,-1,-1,-1,-1,-1,-1,-1,-1,-1,-1,-1,-1,-1,-1,-1,-1,-1,-1,-1,-1,-1,-1,-1,-1,-1,-1,-1,-1,-1,-1,-1,-1],"split_conditions":[-2.806662E-1,1.9647104E-1,-3.101044E-1,3.0128416E-1,-1.5838632E-1,6.55433E-1,3.2689965E-1,4.9457884E-1,4.619474E-1,1.7317192E-1,-4.168527E-3,-2.3716071E-1,2.3130721E-1,2.3593975E-2,3.0194736E-1,-8.223475E-1,-1.9714603E-1,-5.568715E-2,-1.2854248E-1,-5.3488545E-2,-6.0362563E-2,3.1385157E-1,2.2189988E-2,-2.9705316E-1,-2.3636416E-1,4.214983E-1,-4.056567E-1,5.178014E-1,-3.180045E-1,-4.1876793E-1,-1.8376833E0,-2.4421446E-1,2.4179225E-1,-3.044253E-1,3.527231E-1,9.127366E-1,1.9872612E-1,-2.67006E-1,-2.9970065E-2,4.61457E-1,8.790468E-1,4.380058E-1,-5.8252804E-2,1.4409932E-1,-1.3644981E-1,-2.51716E-1,-2.0392725E-1,-1.8683738E-1,-2.4077266E-1,-1.5578328E-1,-9.341796E-2,2.5892645E-1,1.0722542E0,1.8489487E-1,2.7416277E-1,-4.0552756E-1,-6.618221E-1,6.686802E-1,3.0049637E-1,-6.548416E-1,2.020464E-1,-2.4167532E-1,-1.8545628E-1,2.933896E-1,3.4994936E-1,-1.6589475E-1,-3.0330615E-2,1.1759468E-2,2.3429097E-1,3.3295313E-1,1.8851678E-1,1.0503873E-1,-5.1789936E-2,1.5838116E-1,3.208477E-1,-1.4229847E-1,-1.5664324E-1,-6.008055E-3,7.271071E-2,2.286819E-2,1.1190219E-1,1.8160552E-1,2.889216E-1,-1.3768217E-2,1.184133E-1,-7.6717615E-2,1.4814704E-2,2.7487445E-1,1.524637E-1,2.3493942E-2,1.6109425E-1,9.430619E-2,2.8503385E-1,-4.748975E-2,7.486346E-2,3.0032745E-1,1.1878933E-1,-5.5032495E-2,6.041988E-2,-2.984212E-2,1.24491766E-1,-1.5922096E-1,-2.645765E-1,-7.09931E-2,2.8859878E-2,4.4690266E-2,-7.3129624E-2,-1.4859614E-1,-4.08915E-2,-5.4830085E-2,1.5606698E-2,-2.387509E-1,-1.7084874E-1,-7.7905044E-2,-2.4676127E-2],"split_indices":[18,307,273,306,299,118,479,391,332,143,434,0,326,178,327,19,355,80,209,195,242,257,389,0,0,410,85,63,431,105,11,0,479,353,24,26,362,0,6,210,73,152,507,454,0,330,261,0,0,0,0,5,1,75,0,141,85,193,395,85,0,0,0,0,0,0,0,0,0,0,0,0,0,0,0,0,0,0,0,0,0,0,0,0,0,0,0,0,0,0,0,0,0,0,0,0,0,0,0,0,0,0,0,0,0,0,0,0,0,0,0,0,0,0,0],"split_type":[0,0,0,0,0,0,0,0,0,0,0,0,0,0,0,0,0,0,0,0,0,0,0,0,0,0,0,0,0,0,0,0,0,0,0,0,0,0,0,0,0,0,0,0,0,0,0,0,0,0,0,0,0,0,0,0,0,0,0,0,0,0,0,0,0,0,0,0,0,0,0,0,0,0,0,0,0,0,0,0,0,0,0,0,0,0,0,0,0,0,0,0,0,0,0,0,0,0,0,0,0,0,0,0,0,0,0,0,0,0,0,0,0,0,0],"sum_hessian":[4.58056E5,3.28581E5,1.29475E5,1.41673E5,1.86908E5,3.2191E4,9.7284E4,1.21818E5,1.9855E4,1.32485E5,5.4423E4,2.137E3,3.0054E4,8.7184E4,1.01E4,8.9424E4,3.2394E4,1.3717E4,6.138E3,3.9407E4,9.3078E4,1.6938E4,3.7485E4,1.092E3,1.045E3,8.58E3,2.1474E4,2.7758E4,5.9426E4,8.069E3,2.031E3,9.99E2,8.8425E4,2.9548E4,2.846E3,6.354E3,7.363E3,2.024E3,4.114E3,3.4196E4,5.211E3,3.6902E4,5.6176E4,1.4371E4,2.567E3,8.461E3,2.9024E4,5.46E2,5.46E2,5.18E2,5.27E2,3.627E3,4.953E3,2.0938E4,5.36E2,2.4492E4,3.266E3,2.8494E4,3.0932E4,7.564E3,5.05E2,6.67E2,1.364E3,5.01E2,4.98E2,6.059E3,8.2366E4,2.7214E4,2.334E3,8.99E2,1.947E3,4.403E3,1.951E3,4.909E3,2.454E3,9.98E2,1.026E3,3.091E3,1.023E3,1.6373E4,1.7823E4,2.344E3,2.867E3,1.8098E4,1.8804E4,2.4596E4,3.158E4,7.773E3,6.598E3,2.065E3,5.02E2,5.488E3,2.973E3,6.17E3,2.2854E4,4.2E2,3.207E3,9.59E2,3.994E3,1.9464E4,1.474E3,1.8871E4,5.621E3,2.071E3,1.195E3,2.891E3,2.5603E4,2.4939E4,5.993E3,9.6E2,6.604E3,1.4E2,5.27E2,9.11E2,4.53E2],"tree_param":{"num_deleted":"0","num_feature":"512","num_nodes":"115","size_leaf_vector":"1"}},{"base_weights":[3.1540532E-7,-1.6894685E-1,8.5380025E-2,-3.106301E-1,-4.6798065E-2,-1.6961636E-2,1.6349132E-1,-4.0827635E-1,-1.462048E-1,1.17597304E-1,-1.2200827E-1,6.685247E-2,-1.7721815E-1,2.345065E-1,3.222554E-2,-8.99836E-2,-4.4597158E-1,-1.8670084E-1,5.970084E-1,4.2605227E-1,3.5365038E-2,-1.6952534E-1,1.5319867E-1,2.358629E-2,2.5199607E-1,-1.08422555E-1,-4.1016668E-1,1.667696E-1,3.6023074E-1,2.345038E-1,-8.074932E-2,2.1032105E-1,-2.2542001E-1,-3.9273286E-1,-5.9774804E-1,-2.4001016E-1,1.545181E-1,8.95778E-1,-2.5187047E-2,7.837078E-1,1.1078388E-1,-7.62295E-2,2.556144E-1,-2.544017E-1,6.484103E-2,3.990504E-1,-7.083967E-2,-6.0627066E-2,2.222512E-1,4.3206677E-1,1.0856347E-1,1.4398459E-1,-1.887649E-1,-1.5183337E-1,-5.33027E-1,9.054156E-2,4.0224138E-1,3.9564034E-1,-2.9391828E-1,5.709683E-2,4.1711208E-1,-5.143759E-2,-8.356372E-1,4.3353073E-2,7.349753E-2,-1.00218475E-1,-3.4345876E-2,-6.2754095E-2,-1.46199E-1,-1.9894578E-1,-6.096957E-2,-1.09302275E-1,-2.4431609E-2,1.9521699E-3,7.599294E-2,2.2959407E-1,3.195703E-1,2.4231628E-1,1.1540748E-1,1.8948513E-1,4.696771E-3,3.1428572E-3,-9.570251E-2,2.3223564E-2,1.4854617E-1,-9.773972E-2,-1.5483858E-2,-1.6385898E-2,9.218044E-2,1.8797837E-1,7.988802E-2,-7.856831E-2,7.8091924E-3,2.0379154E-2,-6.351047E-2,1.254325E-1,1.2359755E-2,1.6744882E-1,7.590106E-2,-1.17373625E-2,1.20706476E-1,1.2735195E-1,4.43273E-3,-1.7089716E-1,-4.4344727E-2,2.6183242E-2,-9.184706E-2,-2.3037785E-1,-1.3402092E-1,5.011337E-2,-1.502101E-2,1.602285E-1,3.17286E-2,1.7271319E-1,8.070125E-2,-5.0635706E-3,-1.1709994E-1,4.509427E-2,-7.714939E-2,9.491585E-2,2.68682E-1,1.3236964E-1,-2.7683778E-2,-1.15594104E-1,-3.2037535E-1],"categories":[],"categories_nodes":[],"categories_segments":[],"categories_sizes":[],"default_left":[0,0,0,0,0,0,0,0,0,0,0,0,0,0,0,0,0,0,0,0,0,0,0,0,0,0,0,0,0,0,0,0,0,0,0,0,0,0,0,0,0,0,0,0,0,0,0,0,0,0,0,0,0,0,0,0,0,0,0,0,0,0,0,0,0,0,0,0,0,0,0,0,0,0,0,0,0,0,0,0,0,0,0,0,0,0,0,0,0,0,0,0,0,0,0,0,0,0,0,0,0,0,0,0,0,0,0,0,0,0,0,0,0,0,0,0,0,0,0,0,0,0,0,0,0],"id":3,"left_children":[1,3,5,7,9,11,13,15,17,19,21,23,25,27,29,31,33,35,37,39,41,43,45,47,49,51,53,55,57,59,61,63,65,67,69,71,73,75,-1,77,79,81,83,85,87,89,91,93,95,97,99,101,103,105,107,109,111,113,115,117,119,121,123,-1,-1,-1,-1,-1,-1,-1,-1,-1,-1,-1,-1,-1,-1,-1,-1,-1,-1,-1,-1,-1,-1,-1,-1,-1,-1,-1,-1,-1,-1,-1,-1,-1,-1,-1,-1,-1,-1,-1,-1,-1,-1,-1,-1,-1,-1,-1,-1,-1,-1,-1,-1,-1,-1,-1,-1,-1,-1,-1,-1,-1,-1],"loss_changes":[6.607331E3,2.6612656E3,2.4324612E3,1.1429966E3,1.021063E3,1.7691624E3,1.6086753E3,5.358804E2,7.985295E2,6.5749524E2,7.409703E2,6.927705E2,7.2482007E2,9.5363184E2,1.384552E3,1.9246753E2,3.224712E2,4.5766498E2,2.7900748E2,6.1511786E2,5.030702E2,9.611664E2,4.5956256E2,1.1728534E3,4.2306738E2,7.0816925E2,3.2721082E2,1.306296E3,9.083203E2,7.0335767E2,8.601469E2,3.3209915E0,3.926335E1,5.133208E2,2.6741797E2,4.289557E2,4.971399E1,2.0253723E1,0E0,2.4179932E1,1.4372249E2,2.8597177E2,2.9377313E2,5.135676E2,3.720724E2,1.20000854E2,8.081068E1,9.5622577E2,7.400399E2,1.638512E2,3.9572772E2,3.0561914E2,4.130703E2,1.2272062E2,1.4130066E2,5.914503E2,6.957009E2,8.48041E2,5.378885E1,3.2268976E2,5.1537415E2,7.530458E2,1.5157434E2,0E0,0E0,0E0,0E0,0E0,0E0,0E0,0E0,0E0,0E0,0E0,0E0,0E0,0E0,0E0,0E0,0E0,0E0,0E0,0E0,0E0,0E0,0E0,0E0,0E0,0E0,0E0,0E0,0E0,0E0,0E0,0E0,0E0,0E0,0E0,0E0,0E0,0E0,0E0,0E0,0E0,0E0,0E0,0E0,0E0,0E0,0E0,0E0,0E0,0E0,0E0,0E0,0E0,0E0,0E0,0E0,0E0,0E0,0E0,0E0,0E0,0E0],"parents":[2147483647,0,0,1,1,2,2,3,3,4,4,5,5,6,6,7,7,8,8,9,9,10,10,11,11,12,12,13,13,14,14,15,15,16,16,17,17,18,18,19,19,20,20,21,21,22,22,23,23,24,24,25,25,26,26,27,27,28,28,29,29,30,30,31,31,32,32,33,33,34,34,35,35,36,36,37,37,39,39,40,40,41,41,42,42,43,43,44,44,45,45,46,46,47,47,48,48,49,49,50,50,51,51,52,52,53,53,54,54,55,55,56,56,57,57,58,58,59,59,60,60,61,61,62,62],"right_children":[2,4,6,8,10,12,14,16,18,20,22,24,26,28,30,32,34,36,38,40,42,44,46,48,50,52,54,56,58,60,62,64,66,68,70,72,74,76,-1,78,80,82,84,86,88,90,92,94,96,98,100,102,104,106,108,110,112,114,116,118,120,122,124,-1,-1,-1,-1,-1,-1,-1,-1,-1,-1,-1,-1,-1,-1,-1,-1,-1,-1,-1,-1,-1,-1,-1,-1,-1,-1,-1,-1,-1,-1,-1,-1,-1,-1,-1,-1,-1,-1,-1,-1,-1,-1,-1,-1,-1,-1,-1,-1,-1,-1,-1,-1,-1,-1,-1,-1,-1,-1,-1,-1,-1,-1],"split_conditions":[1.7459178E-1,8.79675E-2,2.4186856E-1,5.0809395E-1,-6.880573E-2,4.3549827E-1,-2.9947653E-1,-2.818688E-1,-2.1075096E-2,-4.4260198E-1,3.5120258E-1,5.1491237E-1,-8.0597097E-1,-7.775855E-1,9.488304E-2,1.8883182E-1,6.926083E-3,1.8122643E-1,1.6304239E0,-1.0751628E-1,6.249188E-1,2.919753E-1,7.298176E-1,-6.1098397E-1,1.9874623E-1,3.9759423E-3,7.737047E-2,3.418476E-1,-5.4282963E-1,-2.624091E-1,6.0868427E-2,-2.832849E-1,-2.5110641E-2,-2.0383617E-1,-1.3192195E-1,-3.7772208E-1,6.3505694E-3,-2.7056643E-1,-2.5187047E-2,-1.1753824E-1,-3.283605E-2,4.295308E-1,1.501069E-1,2.5946164E-1,-2.273415E-1,-3.1682426E-1,4.3360302E-1,3.7004882E-1,2.8069007E-1,1.7371394E-1,3.6936852E-1,2.8478786E-1,4.5944354E-1,-2.43086E-1,-1.7348535E-2,1.8339305E-1,6.037714E-1,4.3974012E-1,-3.2035413E-1,3.4258017E-1,-7.606698E-2,-9.926906E-2,-3.881802E-1,4.3353073E-2,7.349753E-2,-1.00218475E-1,-3.4345876E-2,-6.2754095E-2,-1.46199E-1,-1.9894578E-1,-6.096957E-2,-1.09302275E-1,-2.4431609E-2,1.9521699E-3,7.599294E-2,2.2959407E-1,3.195703E-1,2.4231628E-1,1.1540748E-1,1.8948513E-1,4.696771E-3,3.1428572E-3,-9.570251E-2,2.3223564E-2,1.4854617E-1,-9.773972E-2,-1.5483858E-2,-1.6385898E-2,9.218044E-2,1.8797837E-1,7.988802E-2,-7.856831E-2,7.8091924E-3,2.0379154E-2,-6.351047E-2,1.254325E-1,1.2359755E-2,1.6744882E-1,7.590106E-2,-1.17373625E-2,1.20706476E-1,1.2735195E-1,4.43273E-3,-1.7089716E-1,-4.4344727E-2,2.6183242E-2,-9.184706E-2,-2.3037785E-1,-1.3402092E-1,5.011337E-2,-1.502101E-2,1.602285E-1,3.17286E-2,1.7271319E-1,8.070125E-2,-5.0635706E-3,-1.1709994E-1,4.509427E-2,-7.714939E-2,9.491585E-2,2.68682E-1,1.3236964E-1,-2.7683778E-2,-1.15594104E-1,-3.2037535E-1],"split_indices":[307,422,93,210,290,410,431,3,226,25,24,349,218,303,232,39,300,236,1,94,58,306,221,56,318,459,14,334,19,355,374,0,4,325,68,220,4,0,0,0,4,473,201,348,448,18,40,490,478,283,381,270,40,0,72,283,243,460,0,237,343,386,2,0,0,0,0,0,0,0,0,0,0,0,0,0,0,0,0,0,0,0,0,0,0,0,0,0,0,0,0,0,0,0,0,0,0,0,0,0,0,0,0,0,0,0,0,0,0,0,0,0,0,0,0,0,0,0,0,0,0,0,0,0,0],"split_type":[0,0,0,0,0,0,0,0,0,0,0,0,0,0,0,0,0,0,0,0,0,0,0,0,0,0,0,0,0,0,0,0,0,0,0,0,0,0,0,0,0,0,0,0,0,0,0,0,0,0,0,0,0,0,0,0,0,0,0,0,0,0,0,0,0,0,0,0,0,0,0,0,0,0,0,0,0,0,0,0,0,0,0,0,0,0,0,0,0,0,0,0,0,0,0,0,0,0,0,0,0,0,0,0,0,0,0,0,0,0,0,0,0,0,0,0,0,0,0,0,0,0,0,0,0],"sum_hessian":[4.58056E5,1.53773E5,3.04283E5,7.1193E4,8.258E4,1.31713E5,1.7257E5,4.4666E4,2.6527E4,2.5921E4,5.6659E4,8.6483E4,4.523E4,1.11985E5,6.0585E4,4.73E3,3.9936E4,2.5157E4,1.37E3,5.455E3,2.0466E4,4.8317E4,8.342E3,7.0102E4,1.6381E4,3.4919E4,1.0311E4,7.2777E4,3.9208E4,2.1711E4,3.8874E4,1.47E3,3.26E3,2.9568E4,1.0368E4,2.1758E4,3.399E3,9.52E2,4.18E2,2.555E3,2.9E3,1.3584E4,6.882E3,3.5471E4,1.2846E4,3.977E3,4.365E3,4.9233E4,2.0869E4,7.262E3,9.119E3,8.431E3,2.6488E4,3.324E3,6.987E3,5.498E4,1.7797E4,3.7195E4,2.013E3,1.1013E4,1.0698E4,3.7422E4,1.452E3,5.09E2,9.61E2,1.646E3,1.614E3,1.0057E4,1.9511E4,8.893E3,1.475E3,1.2195E4,9.563E3,1.361E3,2.038E3,5.41E2,4.11E2,2.409E3,1.46E2,4.47E2,2.453E3,1.001E4,3.574E3,3.947E3,2.935E3,2.6234E4,9.237E3,8.606E3,4.24E3,1.464E3,2.513E3,1.468E3,2.897E3,2.6599E4,2.2634E4,1.0024E4,1.0845E4,4.26E3,3.002E3,6.069E3,3.05E3,2.658E3,5.773E3,2.57E3,2.3918E4,1.304E3,2.02E3,1.875E3,5.112E3,3.5607E4,1.9373E4,1.2318E4,5.479E3,1.5356E4,2.1839E4,5.2E2,1.493E3,8.494E3,2.519E3,8.839E3,1.859E3,2.864E3,3.4558E4,4.95E2,9.57E2],"tree_param":{"num_deleted":"0","num_feature":"512","num_nodes":"125","size_leaf_vector":"1"}},{"base_weights":[2.5277336E-6,-1.5868351E-1,4.5354187E-2,-6.713266E-2,-2.2574207E-1,-9.44127E-2,7.099662E-2,1.6527192E-1,-1.1700575E-1,-3.4257278E-1,-1.5856816E-1,-1.5320034E-1,9.907769E-2,3.7072256E-2,1.8817748E-1,3.4683552E-1,8.44268E-2,-2.8106302E-2,-2.2275299E-1,-4.310062E-1,-1.8340792E-1,-1.3558093E-1,-7.1506244E-1,-2.1894446E-2,-2.2826278E-1,-3.2621393E-1,1.6555046E-1,1.5309194E-2,1.8445624E-1,3.0898508E-1,1.0564258E-1,4.2059934E-1,2.9772753E-1,9.9439286E-2,-1.3851966E-1,3.1149123E-2,-2.5108033E-1,-5.4211427E-2,-3.0253914E-1,-6.015605E-1,-3.3876503E-1,-1.3051872E-1,-6.427971E-1,-5.74673E-2,-2.860126E-1,-2.0004134E-1,-2.205699E-1,-6.322143E-2,1.9167176E-1,-1.6549394E-2,-2.8839993E-1,-7.36951E-2,-4.1243818E-1,2.0935498E-1,-2.707608E-1,-3.398907E-1,2.7166858E-2,4.915269E-2,3.9486033E-1,1.4935519E-1,4.217854E-1,-2.1016765E-2,2.4598838E-1,1.2016267E-1,1.3364267E-1,8.177723E-2,9.37671E-2,1.1727359E-2,4.182319E-2,5.1941343E-2,-1.7080668E-2,-1.07177414E-1,-4.2989105E-2,-5.770694E-3,-1.0913705E-1,-1.2508632E-1,-5.8204252E-2,-1.5264574E-1,-2.2022362E-1,-7.877445E-2,-1.4772917E-1,-6.0525443E-2,1.735304E-2,-1.7704286E-1,-2.2478634E-1,-5.513679E-3,-7.872998E-2,-7.2658755E-2,-2.506761E-1,-4.3833014E-2,2.7811605E-2,-1.547774E-1,2.5542924E-2,-2.8481899E-2,-1.00314245E-1,-1.0609274E-1,-1.4034168E-1,4.7421727E-2,1.2623882E-1,-1.0755499E-1,-5.2635718E-2,-2.1871956E-1,-5.760295E-2,1.49316E-3,5.546865E-2,6.330552E-2,-1.9026242E-2,2.544217E-1,7.876163E-2,7.962757E-2,-2.101133E-2,-9.158371E-2,1.4346193E-1,5.031228E-2,-5.5273093E-2,9.338503E-2,-3.8393177E-2],"categories":[],"categories_nodes":[],"categories_segments":[],"categories_sizes":[],"default_left":[0,0,0,0,0,0,0,0,0,0,0,0,0,0,0,0,0,0,0,0,0,0,0,0,0,0,0,0,0,0,0,0,0,0,0,0,0,0,0,0,0,0,0,0,0,0,0,0,0,0,0,0,0,0,0,0,0,0,0,0,0,0,0,0,0,0,0,0,0,0,0,0,0,0,0,0,0,0,0,0,0,0,0,0,0,0,0,0,0,0,0,0,0,0,0,0,0,0,0,0,0,0,0,0,0,0,0,0,0,0,0,0,0,0,0,0,0],"id":4,"left_children":[1,3,5,7,9,11,13,15,17,19,21,23,25,27,29,31,33,35,37,39,41,43,45,47,49,51,53,55,57,59,61,63,65,67,-1,69,71,73,75,77,79,81,83,85,87,-1,-1,89,-1,91,93,-1,95,97,99,101,103,105,107,109,111,113,115,-1,-1,-1,-1,-1,-1,-1,-1,-1,-1,-1,-1,-1,-1,-1,-1,-1,-1,-1,-1,-1,-1,-1,-1,-1,-1,-1,-1,-1,-1,-1,-1,-1,-1,-1,-1,-1,-1,-1,-1,-1,-1,-1,-1,-1,-1,-1,-1,-1,-1,-1,-1,-1,-1],"loss_changes":[3.2964944E3,6.25042E2,1.2767759E3,4.9896567E2,4.6114795E2,6.2821356E2,1.1966298E3,1.1161563E2,3.3317944E2,3.0188257E2,4.772461E2,4.1748157E2,3.6389288E2,7.4875903E2,6.738069E2,8.362061E0,4.3206528E1,2.5442618E2,2.1765472E2,2.1674219E2,1.8612616E2,4.2108386E2,9.5043945E-1,4.208157E2,3.4313098E2,1.19856415E1,2.1279694E2,8.567187E2,8.550294E2,4.938501E2,7.1375146E2,2.875824E-1,4.4039917E-1,1.2354633E1,0E0,1.9029175E2,4.6217606E1,5.6319E1,1.3633136E2,5.9097412E1,1.046698E2,9.224394E1,3.993103E0,1.8898517E2,2.947364E2,0E0,0E0,1.8744542E2,0E0,3.0286118E2,1.866753E2,0E0,2.5658112E0,1.0962375E2,8.434784E0,3.7803064E2,6.8891064E2,3.3312585E2,7.0472144E2,2.89275E2,6.5944653E2,6.501988E2,4.6513147E2,0E0,0E0,0E0,0E0,0E0,0E0,0E0,0E0,0E0,0E0,0E0,0E0,0E0,0E0,0E0,0E0,0E0,0E0,0E0,0E0,0E0,0E0,0E0,0E0,0E0,0E0,0E0,0E0,0E0,0E0,0E0,0E0,0E0,0E0,0E0,0E0,0E0,0E0,0E0,0E0,0E0,0E0,0E0,0E0,0E0,0E0,0E0,0E0,0E0,0E0,0E0,0E0,0E0,0E0],"parents":[2147483647,0,0,1,1,2,2,3,3,4,4,5,5,6,6,7,7,8,8,9,9,10,10,11,11,12,12,13,13,14,14,15,15,16,16,17,17,18,18,19,19,20,20,21,21,22,22,23,23,24,24,25,25,26,26,27,27,28,28,29,29,30,30,31,31,32,32,33,33,35,35,36,36,37,37,38,38,39,39,40,40,41,41,42,42,43,43,44,44,47,47,49,49,50,50,52,52,53,53,54,54,55,55,56,56,57,57,58,58,59,59,60,60,61,61,62,62],"right_children":[2,4,6,8,10,12,14,16,18,20,22,24,26,28,30,32,34,36,38,40,42,44,46,48,50,52,54,56,58,60,62,64,66,68,-1,70,72,74,76,78,80,82,84,86,88,-1,-1,90,-1,92,94,-1,96,98,100,102,104,106,108,110,112,114,116,-1,-1,-1,-1,-1,-1,-1,-1,-1,-1,-1,-1,-1,-1,-1,-1,-1,-1,-1,-1,-1,-1,-1,-1,-1,-1,-1,-1,-1,-1,-1,-1,-1,-1,-1,-1,-1,-1,-1,-1,-1,-1,-1,-1,-1,-1,-1,-1,-1,-1,-1,-1,-1,-1],"split_conditions":[-1.1323765E-1,2.1691318E-1,-4.7594672E-1,-1.0148959E0,4.2596754E-1,5.4422263E-2,-1.0010023E0,-2.8683856E-1,1.5208097E-1,-4.720988E-1,1.5905817E-1,1.7655905E-1,-1.6394226E-1,2.9236078E-1,-3.6620414E-1,-2.955966E-1,1.4054904E0,1.3491505E-1,3.4562433E-1,-1.0829887E-1,2.554433E-1,-3.5333267E-1,-2.6819184E-1,4.9929252E-1,2.199156E-1,6.685156E-2,2.0956473E-1,3.0959886E-1,-5.257592E-1,1.2500964E-1,4.7544536E-1,-3.169938E-1,-2.7904564E-1,-8.057445E-2,-1.3851966E-1,3.552852E-1,-1.1714446E-1,1.3583971E0,-3.839969E-1,-5.544101E-1,3.2756767E-1,-1.519311E0,-2.2886302E-1,-4.9703816E-1,1.0273439E0,-2.0004134E-1,-2.205699E-1,-4.5907208E-1,1.9167176E-1,1.11963294E-1,6.349425E-1,-7.36951E-2,-2.1771635E-1,5.0944644E-1,-2.0647483E-1,2.4925709E-2,3.795956E-2,3.007938E-1,-5.527937E-1,-3.00633E-1,-4.3798634E-1,4.1751873E-1,2.116057E-1,1.2016267E-1,1.3364267E-1,8.177723E-2,9.37671E-2,1.1727359E-2,4.182319E-2,5.1941343E-2,-1.7080668E-2,-1.07177414E-1,-4.2989105E-2,-5.770694E-3,-1.0913705E-1,-1.2508632E-1,-5.8204252E-2,-1.5264574E-1,-2.2022362E-1,-7.877445E-2,-1.4772917E-1,-6.0525443E-2,1.735304E-2,-1.7704286E-1,-2.2478634E-1,-5.513679E-3,-7.872998E-2,-7.2658755E-2,-2.506761E-1,-4.3833014E-2,2.7811605E-2,-1.547774E-1,2.5542924E-2,-2.8481899E-2,-1.00314245E-1,-1.0609274E-1,-1.4034168E-1,4.7421727E-2,1.2623882E-1,-1.0755499E-1,-5.2635718E-2,-2.1871956E-1,-5.760295E-2,1.49316E-3,5.546865E-2,6.330552E-2,-1.9026242E-2,2.544217E-1,7.876163E-2,7.962757E-2,-2.101133E-2,-9.158371E-2,1.4346193E-1,5.031228E-2,-5.5273093E-2,9.338503E-2,-3.8393177E-2],"split_indices":[411,183,167,401,210,86,356,273,160,98,203,475,346,54,424,0,1,366,29,165,501,22,0,460,77,4,143,502,428,392,207,0,0,226,0,33,30,1,294,170,478,55,0,294,252,0,0,508,0,147,238,0,0,423,0,199,80,54,309,420,141,117,128,0,0,0,0,0,0,0,0,0,0,0,0,0,0,0,0,0,0,0,0,0,0,0,0,0,0,0,0,0,0,0,0,0,0,0,0,0,0,0,0,0,0,0,0,0,0,0,0,0,0,0,0,0,0],"split_type":[0,0,0,0,0,0,0,0,0,0,0,0,0,0,0,0,0,0,0,0,0,0,0,0,0,0,0,0,0,0,0,0,0,0,0,0,0,0,0,0,0,0,0,0,0,0,0,0,0,0,0,0,0,0,0,0,0,0,0,0,0,0,0,0,0,0,0,0,0,0,0,0,0,0,0,0,0,0,0,0,0,0,0,0,0,0,0,0,0,0,0,0,0,0,0,0,0,0,0,0,0,0,0,0,0,0,0,0,0,0,0,0,0,0,0,0,0],"sum_hessian":[4.58056E5,1.01812E5,3.56244E5,4.3046E4,5.8766E4,5.5226E4,3.01018E5,7.605E3,3.5441E4,2.1452E4,3.7314E4,4.2357E4,1.2869E4,2.33438E5,6.758E4,2.342E3,5.263E3,1.9255E4,1.6186E4,1.3789E4,7.663E3,3.5835E4,1.479E3,1.5407E4,2.695E4,1.739E3,1.113E4,2.03404E5,3.0034E4,2.7429E4,4.0151E4,9.33E2,1.409E3,5.123E3,1.4E2,1.5213E4,4.042E3,5.201E3,1.0985E4,4.838E3,8.951E3,6.873E3,7.9E2,2.3588E4,1.2247E4,4.46E2,1.033E3,1.4501E4,9.06E2,5.962E3,2.0988E4,9.01E2,8.38E2,1.0115E4,1.015E3,6.57E3,1.96834E5,1.828E4,1.1754E4,1.1358E4,1.6071E4,2.1105E4,1.9046E4,5.26E2,4.07E2,5.3E2,8.79E2,2.042E3,3.081E3,5.824E3,9.389E3,2.035E3,2.007E3,4.674E3,5.27E2,5.346E3,5.639E3,2.849E3,1.989E3,5.986E3,2.965E3,4.987E3,1.886E3,5.33E2,2.57E2,1.9811E4,3.777E3,1.1344E4,9.03E2,9.468E3,5.033E3,1.008E3,4.954E3,4.031E3,1.6957E4,4.1E2,4.28E2,8.142E3,1.973E3,5.27E2,4.88E2,1.808E3,4.762E3,1.72559E5,2.4275E4,7.498E3,1.0782E4,2.655E3,9.099E3,7.428E3,3.93E3,1.157E3,1.4914E4,9.788E3,1.1317E4,1.6215E4,2.831E3],"tree_param":{"num_deleted":"0","num_feature":"512","num_nodes":"117","size_leaf_vector":"1"}},{"base_weights":[-2.6368743E-6,-9.217654E-2,4.6578683E-2,4.9573388E-2,-1.2771127E-1,-3.901074E-3,9.6299104E-2,1.2986001E-1,-8.0225244E-2,-1.6514681E-1,1.213481E-2,-3.833944E-2,1.1016512E-1,1.2094605E-1,-7.1103096E-2,3.5709673E-1,4.2618226E-2,-1.5002511E-1,1.664014E-1,-1.8559325E-1,5.2465204E-2,1.4699262E-1,-6.430326E-2,6.4333603E-3,-1.21229924E-1,1.7991619E-1,-1.7592788E-1,1.4886475E-1,-5.848857E-2,1.4959568E-1,-2.0585433E-1,9.155859E-2,5.207955E-1,1.7409776E-1,-3.1444658E-2,-5.9212005E-1,-9.881412E-2,7.587308E-2,2.3215696E-1,-9.04513E-2,-2.3507614E-1,-6.0966726E-2,2.7028543E-1,2.4059112E-1,-8.67511E-3,5.1188236E-3,-2.191002E-1,-1.199068E-1,4.5050513E-2,-3.4524884E-2,-2.6181325E-1,3.0709508E-1,2.5406028E-3,-3.0909127E-1,1.8143588E-1,3.2630718E-1,1.1966241E-1,-9.91373E-3,-7.002365E-1,2.3410086E-1,-1.8515332E-1,-1.2300168E-1,-5.6109905E-1,1.6166195E-3,3.6900245E-2,1.3515566E-1,1.8420282E-1,1.019964E-1,-1.2213682E-3,-6.6757545E-2,4.837995E-3,-2.195238E-1,-1.4306939E-1,-1.1932859E-2,-6.404323E-2,3.393493E-2,1.1465375E-2,8.160852E-2,6.368626E-2,1.1185509E-2,-4.7394183E-2,-7.542862E-2,3.0571323E-2,-6.692037E-2,-4.749402E-4,6.0535416E-2,2.0269372E-1,1.0980632E-1,3.2831278E-2,1.4188063E-2,-1.6401205E-2,-8.3925724E-2,1.3274647E-2,-1.0166143E-1,-4.0902045E-2,5.5114415E-2,-5.777263E-2,2.1635499E-2,-4.4136524E-2,1.0909102E-2,-5.752995E-2,-1.908597E-1,-6.2072176E-2,1.2901163E-1,3.1922642E-2,1.1530483E-1,-1.7856454E-2,-5.459551E-2,-1.8562156E-1,2.7563298E-2,1.2787072E-1,7.265596E-2,1.9268124E-1,2.4927938E-2,7.732771E-2,-3.1888794E-2,6.9534495E-2,-1.9069725E-1,-2.4690144E-1,1.837563E-1,5.9656326E-2,-7.3374644E-2,-4.6513848E-2,2.7608862E-2,-6.156679E-2,-2.7194503E-1,-1.090468E-1],"categories":[],"categories_nodes":[],"categories_segments":[],"categories_sizes":[],"default_left":[0,0,0,0,0,0,0,0,0,0,0,0,0,0,0,0,0,0,0,0,0,0,0,0,0,0,0,0,0,0,0,0,0,0,0,0,0,0,0,0,0,0,0,0,0,0,0,0,0,0,0,0,0,0,0,0,0,0,0,0,0,0,0,0,0,0,0,0,0,0,0,0,0,0,0,0,0,0,0,0,0,0,0,0,0,0,0,0,0,0,0,0,0,0,0,0,0,0,0,0,0,0,0,0,0,0,0,0,0,0,0,0,0,0,0,0,0,0,0,0,0,0,0,0,0,0,0],"id":5,"left_children":[1,3,5,7,9,11,13,15,17,19,21,23,25,27,29,31,33,35,37,39,41,43,45,47,49,51,53,55,57,59,61,63,65,67,69,71,73,75,77,79,81,83,85,87,89,91,93,95,97,99,101,103,105,107,109,111,113,115,117,119,121,123,125,-1,-1,-1,-1,-1,-1,-1,-1,-1,-1,-1,-1,-1,-1,-1,-1,-1,-1,-1,-1,-1,-1,-1,-1,-1,-1,-1,-1,-1,-1,-1,-1,-1,-1,-1,-1,-1,-1,-1,-1,-1,-1,-1,-1,-1,-1,-1,-1,-1,-1,-1,-1,-1,-1,-1,-1,-1,-1,-1,-1,-1,-1,-1,-1],"loss_changes":[1.9667096E3,7.745729E2,7.637152E2,3.212198E2,6.43682E2,5.931311E2,6.324967E2,3.775232E2,2.0281189E2,4.3155176E2,2.6765338E2,4.3041544E2,6.9876624E2,6.6939905E2,5.851243E2,2.2959528E2,1.3401642E2,2.078231E2,1.545356E1,4.1737646E2,2.058569E2,1.3686058E2,1.7808923E2,3.67401E2,4.95778E2,6.3506415E2,3.2669855E2,5.9912964E2,5.608541E2,2.1104375E2,3.5948407E2,5.4614334E0,2.1131287E1,1.4657205E2,8.00315E1,1.498288E1,5.570436E1,1.5313096E0,1.1345444E0,2.6168262E2,3.2142017E2,5.274132E1,7.908424E1,9.6459045E1,9.084751E0,1.2755648E2,5.081369E1,3.889974E2,3.000177E2,2.80445E2,3.1881555E2,4.044944E2,2.7861514E2,1.9671722E2,4.082688E1,4.3414648E2,5.0141272E2,3.8968253E2,9.513977E0,7.931909E1,2.6530876E0,1.7517535E2,1.5733105E2,0E0,0E0,0E0,0E0,0E0,0E0,0E0,0E0,0E0,0E0,0E0,0E0,0E0,0E0,0E0,0E0,0E0,0E0,0E0,0E0,0E0,0E0,0E0,0E0,0E0,0E0,0E0,0E0,0E0,0E0,0E0,0E0,0E0,0E0,0E0,0E0,0E0,0E0,0E0,0E0,0E0,0E0,0E0,0E0,0E0,0E0,0E0,0E0,0E0,0E0,0E0,0E0,0E0,0E0,0E0,0E0,0E0,0E0,0E0,0E0,0E0,0E0,0E0,0E0],"parents":[2147483647,0,0,1,1,2,2,3,3,4,4,5,5,6,6,7,7,8,8,9,9,10,10,11,11,12,12,13,13,14,14,15,15,16,16,17,17,18,18,19,19,20,20,21,21,22,22,23,23,24,24,25,25,26,26,27,27,28,28,29,29,30,30,31,31,32,32,33,33,34,34,35,35,36,36,37,37,38,38,39,39,40,40,41,41,42,42,43,43,44,44,45,45,46,46,47,47,48,48,49,49,50,50,51,51,52,52,53,53,54,54,55,55,56,56,57,57,58,58,59,59,60,60,61,61,62,62],"right_children":[2,4,6,8,10,12,14,16,18,20,22,24,26,28,30,32,34,36,38,40,42,44,46,48,50,52,54,56,58,60,62,64,66,68,70,72,74,76,78,80,82,84,86,88,90,92,94,96,98,100,102,104,106,108,110,112,114,116,118,120,122,124,126,-1,-1,-1,-1,-1,-1,-1,-1,-1,-1,-1,-1,-1,-1,-1,-1,-1,-1,-1,-1,-1,-1,-1,-1,-1,-1,-1,-1,-1,-1,-1,-1,-1,-1,-1,-1,-1,-1,-1,-1,-1,-1,-1,-1,-1,-1,-1,-1,-1,-1,-1,-1,-1,-1,-1,-1,-1,-1,-1,-1,-1,-1,-1,-1],"split_conditions":[1.7459178E-1,-6.880573E-2,2.4888624E-1,-5.092456E-1,2.776708E-1,-4.005046E-1,-2.8882742E-1,-2.865323E-1,-4.6088725E-1,3.5120258E-1,2.8029507E-1,3.010308E-1,1.6710484E-1,4.9333632E-1,3.7340468E-1,2.1024795E-1,-3.619747E-1,2.2494596E-1,-2.094184E-1,6.1957624E-2,-3.1835997E-1,2.1927378E-1,3.0217923E-2,4.071193E-1,-3.2047606E-1,3.9556545E-1,-3.474879E-1,-3.3643566E-2,1.458259E-1,1.4842094E-1,-5.1529837E-1,-2.02252E-1,2.2683434E-1,2.1094975E0,-5.8653265E-1,-1.9933872E-1,-3.9423186E-1,-2.5467888E-1,-1.4371334E-1,4.261415E-1,-6.747691E-2,4.3360302E-1,-2.1393964E-1,-2.1077648E-1,-2.3860623E-1,-4.032977E-1,1.391789E-1,-1.1090424E-1,1.7461048E-1,2.4004458E-1,2.207146E-1,-5.638255E-2,1.6938874E-1,-1.232162E-2,-1.9161454E-1,-2.2109132E-2,-3.2634982E-1,-1.391391E-1,-2.051713E-1,-2.67006E-1,-2.6929328E-1,-5.5458974E-2,3.8344902E-1,1.6166195E-3,3.6900245E-2,1.3515566E-1,1.8420282E-1,1.019964E-1,-1.2213682E-3,-6.6757545E-2,4.837995E-3,-2.195238E-1,-1.4306939E-1,-1.1932859E-2,-6.404323E-2,3.393493E-2,1.1465375E-2,8.160852E-2,6.368626E-2,1.1185509E-2,-4.7394183E-2,-7.542862E-2,3.0571323E-2,-6.692037E-2,-4.749402E-4,6.0535416E-2,2.0269372E-1,1.0980632E-1,3.2831278E-2,1.4188063E-2,-1.6401205E-2,-8.3925724E-2,1.3274647E-2,-1.0166143E-1,-4.0902045E-2,5.5114415E-2,-5.777263E-2,2.1635499E-2,-4.4136524E-2,1.0909102E-2,-5.752995E-2,-1.908597E-1,-6.2072176E-2,1.2901163E-1,3.1922642E-2,1.1530483E-1,-1.7856454E-2,-5.459551E-2,-1.8562156E-1,2.7563298E-2,1.2787072E-1,7.265596E-2,1.9268124E-1,2.4927938E-2,7.732771E-2,-3.1888794E-2,6.9534495E-2,-1.9069725E-1,-2.4690144E-1,1.837563E-1,5.9656326E-2,-7.3374644E-2,-4.6513848E-2,2.7608862E-2,-6.156679E-2,-2.7194503E-1,-1.090468E-1],"split_indices":[307,290,93,187,306,167,273,181,145,24,327,140,16,59,502,334,330,229,0,426,419,155,36,210,49,108,220,304,255,200,495,3,39,1,170,0,98,0,3,157,262,40,6,458,3,214,101,421,70,128,54,386,41,126,0,160,477,458,0,0,0,346,5,0,0,0,0,0,0,0,0,0,0,0,0,0,0,0,0,0,0,0,0,0,0,0,0,0,0,0,0,0,0,0,0,0,0,0,0,0,0,0,0,0,0,0,0,0,0,0,0,0,0,0,0,0,0,0,0,0,0,0,0,0,0,0,0],"split_type":[0,0,0,0,0,0,0,0,0,0,0,0,0,0,0,0,0,0,0,0,0,0,0,0,0,0,0,0,0,0,0,0,0,0,0,0,0,0,0,0,0,0,0,0,0,0,0,0,0,0,0,0,0,0,0,0,0,0,0,0,0,0,0,0,0,0,0,0,0,0,0,0,0,0,0,0,0,0,0,0,0,0,0,0,0,0,0,0,0,0,0,0,0,0,0,0,0,0,0,0,0,0,0,0,0,0,0,0,0,0,0,0,0,0,0,0,0,0,0,0,0,0,0,0,0,0,0],"sum_hessian":[4.58056E5,1.53773E5,3.04283E5,3.0822E4,1.22951E5,1.50989E5,1.53294E5,1.9043E4,1.1779E4,9.6988E4,2.5963E4,1.15975E5,3.5014E4,1.33621E5,1.9673E4,5.282E3,1.3761E4,9.181E3,2.598E3,8.8658E4,8.33E3,9.392E3,1.6571E4,7.5302E4,4.0673E4,2.8151E4,6.863E3,1.1563E5,1.7991E4,7.458E3,1.2215E4,2.015E3,3.267E3,4.958E3,8.803E3,9.52E2,8.229E3,1.094E3,1.504E3,3.0335E4,5.8323E4,5.478E3,2.852E3,5.865E3,3.527E3,1.1441E4,5.13E3,1.7628E4,5.7674E4,2.5158E4,1.5515E4,1.6395E4,1.1756E4,5E3,1.863E3,1.6339E4,9.9291E4,1.6726E4,1.265E3,5.955E3,1.503E3,9.906E3,2.309E3,5.39E2,1.476E3,1.866E3,1.401E3,2.567E3,2.391E3,1.754E3,7.049E3,4.28E2,5.24E2,5.433E3,2.796E3,5.49E2,5.45E2,4.96E2,1.008E3,1.0491E4,1.9844E4,5.5624E4,2.699E3,1.468E3,4.01E3,2.441E3,4.11E2,2.997E3,2.868E3,1.591E3,1.936E3,1.381E3,1.006E4,2.095E3,3.035E3,3.404E3,1.4224E4,5.0554E4,7.12E3,1.7341E4,7.817E3,1.983E3,1.3532E4,1.0166E4,6.229E3,1.643E3,1.0113E4,3.546E3,1.454E3,1.365E3,4.98E2,1.2905E4,3.434E3,7.8504E4,2.0787E4,1.1958E4,4.768E3,8.33E2,4.32E2,5.06E2,5.449E3,5.03E2,1E3,2.74E3,7.166E3,8.39E2,1.47E3],"tree_param":{"num_deleted":"0","num_feature":"512","num_nodes":"127","size_leaf_vector":"1"}},{"base_weights":[-2.4564674E-6,-6.060729E-2,3.6272205E-2,-1.0827278E-1,1.138157E-2,1.24224536E-1,6.3920543E-3,-1.7133226E-1,-6.2016115E-2,-4.5992114E-2,1.1993574E-1,2.1005018E-1,6.023014E-2,-5.9030127E-2,3.7103225E-2,-2.1320234E-1,-7.349286E-3,-2.584082E-1,-4.0412124E-2,-9.0478584E-2,6.9688596E-2,-6.62675E-2,1.8856178E-1,1.946374E-1,3.4245366E-1,-2.0844646E-1,8.8104226E-2,-8.254611E-2,2.764588E-1,7.371164E-2,-5.2731305E-2,-5.5312835E-2,-2.653269E-1,-1.0994011E-1,1.0328442E-1,-3.5517687E-1,-6.929416E-2,-1.3471691E-1,-3.6940502E-4,-4.053176E-2,-2.5917485E-1,1.9948839E-1,-1.5963245E-2,1.1536468E-2,-1.9552258E-1,-1.5443845E-1,2.344089E-1,-3.8863495E-2,2.4932608E-1,-3.8197306E-1,-1.0041832E-1,7.7602365E-3,1.8122977E-1,-2.5796255E-1,-4.4054415E-2,6.708152E-2,4.3157223E-1,-1.0220233E-1,9.562118E-2,-1.09539665E-1,9.694453E-2,1.22943325E-2,-5.029861E-2,-4.5735486E-2,-1.0619895E-1,-1.13740586E-1,-2.410893E-2,6.35839E-3,5.013924E-2,-6.1556827E-2,-1.2158205E-1,8.344061E-3,-4.626635E-2,-2.275958E-2,-9.374894E-2,-4.7990125E-2,1.4989064E-2,6.6268253E-3,-4.6548206E-2,-1.2202213E-1,1.1016918E-2,1.3467096E-2,9.9364035E-2,-2.5029587E-2,2.6764208E-2,-1.3620096E-2,2.233148E-2,-6.755253E-2,-2.4792397E-2,-5.268515E-3,-5.0165962E-2,1.04002155E-1,4.4047125E-2,1.17118806E-1,-5.151761E-2,6.1028495E-2,1.2622346E-1,-8.333799E-2,-1.2889132E-1,-9.915789E-3,-6.14006E-2,9.7250566E-2,-1.33986715E-2,8.78345E-2,6.709997E-3,-9.88288E-2,-2.6045335E-2,1.1462088E-3,-5.5241197E-2,4.0696215E-2,-3.811999E-2,1.6763586E-1,1.0347938E-1,-1.7055094E-2,-2.1504948E-1,1.4274204E-2,6.433298E-2,2.9792145E-3,-7.424155E-2,-4.0477313E-2,5.064294E-2],"categories":[],"categories_nodes":[],"categories_segments":[],"categories_sizes":[],"default_left":[0,0,0,0,0,0,0,0,0,0,0,0,0,0,0,0,0,0,0,0,0,0,0,0,0,0,0,0,0,0,0,0,0,0,0,0,0,0,0,0,0,0,0,0,0,0,0,0,0,0,0,0,0,0,0,0,0,0,0,0,0,0,0,0,0,0,0,0,0,0,0,0,0,0,0,0,0,0,0,0,0,0,0,0,0,0,0,0,0,0,0,0,0,0,0,0,0,0,0,0,0,0,0,0,0,0,0,0,0,0,0,0,0,0,0,0,0,0,0,0,0],"id":6,"left_children":[1,3,5,7,9,11,13,15,17,19,21,23,25,27,29,31,33,35,37,39,41,43,45,47,-1,49,51,53,55,57,59,61,63,65,67,69,71,73,75,77,79,81,83,85,87,89,91,93,95,97,99,101,103,105,107,109,111,113,115,117,119,-1,-1,-1,-1,-1,-1,-1,-1,-1,-1,-1,-1,-1,-1,-1,-1,-1,-1,-1,-1,-1,-1,-1,-1,-1,-1,-1,-1,-1,-1,-1,-1,-1,-1,-1,-1,-1,-1,-1,-1,-1,-1,-1,-1,-1,-1,-1,-1,-1,-1,-1,-1,-1,-1,-1,-1,-1,-1,-1,-1],"loss_changes":[1.00700385E3,5.885215E2,7.5305304E2,3.009806E2,4.255378E2,3.9907886E2,4.2973816E2,2.9978772E2,2.5254959E2,2.3004266E2,3.0190198E2,4.453579E2,3.117678E2,5.390943E2,4.786972E2,2.862384E2,1.0082208E2,1.07928925E2,2.0251108E2,2.7201776E2,1.3803918E2,6.3992134E1,2.7150677E2,3.8991162E2,0E0,7.331378E1,2.8218515E2,4.311356E2,1.4533914E2,3.9859125E2,3.583458E2,9.34142E1,2.61661E2,3.666635E1,2.2397072E1,2.9235931E1,1.6481926E1,1.6721085E2,3.024111E2,1.7881952E2,3.2203952E2,1.00504E2,5.3093925E1,1.4232386E1,7.9845886E0,3.5590057E0,1.4968207E2,3.3056876E2,1.9455444E2,7.3341675E0,1.6939484E1,3.3586612E2,3.0955225E2,1.405075E2,3.5118576E2,2.539225E1,2.8144653E1,3.1923578E2,5.249339E2,5.0341357E2,1.9323398E2,0E0,0E0,0E0,0E0,0E0,0E0,0E0,0E0,0E0,0E0,0E0,0E0,0E0,0E0,0E0,0E0,0E0,0E0,0E0,0E0,0E0,0E0,0E0,0E0,0E0,0E0,0E0,0E0,0E0,0E0,0E0,0E0,0E0,0E0,0E0,0E0,0E0,0E0,0E0,0E0,0E0,0E0,0E0,0E0,0E0,0E0,0E0,0E0,0E0,0E0,0E0,0E0,0E0,0E0,0E0,0E0,0E0,0E0,0E0,0E0],"parents":[2147483647,0,0,1,1,2,2,3,3,4,4,5,5,6,6,7,7,8,8,9,9,10,10,11,11,12,12,13,13,14,14,15,15,16,16,17,17,18,18,19,19,20,20,21,21,22,22,23,23,25,25,26,26,27,27,28,28,29,29,30,30,31,31,32,32,33,33,34,34,35,35,36,36,37,37,38,38,39,39,40,40,41,41,42,42,43,43,44,44,45,45,46,46,47,47,48,48,49,49,50,50,51,51,52,52,53,53,54,54,55,55,56,56,57,57,58,58,59,59,60,60],"right_children":[2,4,6,8,10,12,14,16,18,20,22,24,26,28,30,32,34,36,38,40,42,44,46,48,-1,50,52,54,56,58,60,62,64,66,68,70,72,74,76,78,80,82,84,86,88,90,92,94,96,98,100,102,104,106,108,110,112,114,116,118,120,-1,-1,-1,-1,-1,-1,-1,-1,-1,-1,-1,-1,-1,-1,-1,-1,-1,-1,-1,-1,-1,-1,-1,-1,-1,-1,-1,-1,-1,-1,-1,-1,-1,-1,-1,-1,-1,-1,-1,-1,-1,-1,-1,-1,-1,-1,-1,-1,-1,-1,-1,-1,-1,-1,-1,-1,-1,-1,-1,-1],"split_conditions":[-2.0142049E-2,2.2191899E-1,4.1773012E-1,-4.0131387E-1,4.3904476E-2,-2.4005687E-1,3.1651455E-1,-9.704998E-2,9.365436E-1,-2.9718402E-1,-6.876253E-2,2.3480032E-1,-4.8009628E-1,1.3382137E-1,4.8234174E-3,-4.1931346E-1,-1.074003E-1,5.5603348E-2,6.113695E-2,5.6469643E-1,6.56128E-3,1.236789E-1,-2.5994336E-2,-5.136169E-2,3.4245366E-1,-3.541613E-1,3.1468207E-1,-1.5246777E-1,-3.3170566E-1,3.3507493E-1,3.0558318E-1,3.2801753E-1,8.260213E-1,-3.502657E-1,1.4373964E0,-8.7171994E-2,-2.532038E-1,-1.9528839E-1,4.209487E-1,6.5772724E-1,-7.276094E-1,-6.332746E-2,3.1961393E-2,5.2907825E-2,-9.749098E-2,-4.2123716E-2,4.275786E-1,-4.4450176E-1,-3.942777E-1,-2.2296079E-1,-1.530621E-1,-3.1603687E-2,-9.897134E-1,2.6570046E-1,4.824072E-1,-1.7193256E-1,-1.4116867E-1,5.09701E-1,-2.9146737E-1,-3.9140947E-2,1.1088171E-1,1.22943325E-2,-5.029861E-2,-4.5735486E-2,-1.0619895E-1,-1.13740586E-1,-2.410893E-2,6.35839E-3,5.013924E-2,-6.1556827E-2,-1.2158205E-1,8.344061E-3,-4.626635E-2,-2.275958E-2,-9.374894E-2,-4.7990125E-2,1.4989064E-2,6.6268253E-3,-4.6548206E-2,-1.2202213E-1,1.1016918E-2,1.3467096E-2,9.9364035E-2,-2.5029587E-2,2.6764208E-2,-1.3620096E-2,2.233148E-2,-6.755253E-2,-2.4792397E-2,-5.268515E-3,-5.0165962E-2,1.04002155E-1,4.4047125E-2,1.17118806E-1,-5.151761E-2,6.1028495E-2,1.2622346E-1,-8.333799E-2,-1.2889132E-1,-9.915789E-3,-6.14006E-2,9.7250566E-2,-1.33986715E-2,8.78345E-2,6.709997E-3,-9.88288E-2,-2.6045335E-2,1.1462088E-3,-5.5241197E-2,4.0696215E-2,-3.811999E-2,1.6763586E-1,1.0347938E-1,-1.7055094E-2,-2.1504948E-1,1.4274204E-2,6.433298E-2,2.9792145E-3,-7.424155E-2,-4.0477313E-2,5.064294E-2],"split_indices":[86,155,117,2,280,46,29,262,122,136,371,41,167,305,290,477,346,484,266,291,280,292,266,494,0,49,151,206,18,108,387,338,92,0,1,4,0,99,59,198,19,386,344,422,0,4,447,21,167,0,3,80,476,201,59,0,6,152,419,242,70,0,0,0,0,0,0,0,0,0,0,0,0,0,0,0,0,0,0,0,0,0,0,0,0,0,0,0,0,0,0,0,0,0,0,0,0,0,0,0,0,0,0,0,0,0,0,0,0,0,0,0,0,0,0,0,0,0,0,0,0],"split_type":[0,0,0,0,0,0,0,0,0,0,0,0,0,0,0,0,0,0,0,0,0,0,0,0,0,0,0,0,0,0,0,0,0,0,0,0,0,0,0,0,0,0,0,0,0,0,0,0,0,0,0,0,0,0,0,0,0,0,0,0,0,0,0,0,0,0,0,0,0,0,0,0,0,0,0,0,0,0,0,0,0,0,0,0,0,0,0,0,0,0,0,0,0,0,0,0,0,0,0,0,0,0,0,0,0,0,0,0,0,0,0,0,0,0,0,0,0,0,0,0,0],"sum_hessian":[4.58056E5,1.7151E5,2.86546E5,1.03187E5,6.8323E4,7.2662E4,2.13884E5,4.3662E4,5.9525E4,4.4699E4,2.3624E4,3.1036E4,4.1626E4,6.8328E4,1.45556E5,3.4781E4,8.881E3,5.898E3,5.3627E4,3.2284E4,1.2415E4,6.362E3,1.7262E4,3.0532E4,5.04E2,3.912E3,3.7714E4,6.3853E4,4.475E3,1.03414E5,4.2142E4,8.633E3,2.6148E4,4.608E3,4.273E3,3.901E3,1.997E3,1.5983E4,3.7644E4,2.491E4,7.374E3,4.935E3,7.48E3,3.972E3,2.39E3,2.035E3,1.5227E4,5.794E3,2.4738E4,1.5E3,2.412E3,2.0247E4,1.7467E4,1.1489E4,5.2364E4,1.905E3,2.57E3,1.1453E4,9.1961E4,3.0548E4,1.1594E4,4.649E3,3.984E3,1.1505E4,1.4643E4,4.55E2,4.153E3,1.87E3,2.403E3,9.78E2,2.923E3,9.32E2,1.065E3,1.2009E4,3.974E3,9.025E3,2.8619E4,1.611E4,8.8E3,4.92E3,2.454E3,2.271E3,2.664E3,4.557E3,2.923E3,2.085E3,1.887E3,1.892E3,4.98E2,1.74E2,1.861E3,6.672E3,8.555E3,1.369E3,4.425E3,1.9515E4,5.223E3,4.73E2,1.027E3,1.466E3,9.46E2,2.877E3,1.737E4,1.0261E4,7.206E3,8.104E3,3.385E3,3.9027E4,1.3337E4,1.408E3,4.97E2,1.039E3,1.531E3,1.0667E4,7.86E2,6.5486E4,2.6475E4,1.637E4,1.4178E4,2.743E3,8.851E3],"tree_param":{"num_deleted":"0","num_feature":"512","num_nodes":"121","size_leaf_vector":"1"}},{"base_weights":[-2.3759596E-6,-4.379075E-2,2.809004E-2,-1.342298E-2,-1.10810466E-1,1.0131994E-1,5.423574E-3,-1.06837206E-1,1.9541886E-2,-1.2957245E-1,1.7246354E-1,9.210533E-2,7.4903256E-1,2.552196E-2,-9.383676E-2,2.4575273E-2,-1.5372926E-1,3.5698432E-2,-1.5495849E-1,2.1246089E-2,-1.586406E-1,2.919878E-1,7.571972E-2,-2.0071832E-2,1.4006104E-1,2.781099E-1,1.7856435E-1,2.1963155E-1,1.2773464E-2,1.9825548E-2,-1.379743E-1,-1.9880846E-1,9.106537E-2,-1.7825213E-1,1.2859069E-2,7.165771E-3,1.5225178E-1,-4.6092503E-2,-4.8893526E-1,1.5543394E-1,-3.5956394E-2,-1.3732639E-1,-4.1441453E-1,1.2324036E-1,2.2793949E-1,-1.2397068E-4,1.0271065E-1,-3.4925586E-1,1.3592886E-2,8.776519E-2,3.2488093E-1,1.4511137E-1,4.9966028E-1,-1.309505E-1,3.1071737E-2,1.1690661E-1,-1.0169355E-1,-2.1829544E-1,-7.961019E-2,-3.818588E-2,-6.723289E-2,4.8184283E-2,-5.5763563E-3,-3.4680646E-2,-8.050962E-2,6.726219E-2,-7.098337E-3,-7.954623E-3,3.253402E-2,2.947981E-2,1.037065E-1,5.6705275E-3,-6.9548264E-2,-7.371537E-2,-1.721089E-1,7.945552E-2,3.8360205E-2,-1.6569112E-3,-6.575949E-2,-3.1245336E-2,-8.30633E-2,-1.6135238E-1,-9.177597E-2,6.358981E-2,7.327818E-2,3.8854476E-2,2.6103016E-2,-1.6387045E-1,-8.5864484E-2,-8.739953E-3,5.9792455E-2,-2.1135021E-2,4.2823095E-2,7.3880464E-2,1.6970278E-1,7.56272E-2,1.7545073E-3,1.995759E-1,1.2091878E-1,1.19558156E-1,-4.7558356E-2,2.3992097E-1,8.529279E-3,6.2422853E-2,1.4483046E-3,-5.0142594E-2,8.3226E-3,-9.1364175E-2,-3.3582203E-2,-3.382879E-2,1.5206909E-2],"categories":[],"categories_nodes":[],"categories_segments":[],"categories_sizes":[],"default_left":[0,0,0,0,0,0,0,0,0,0,0,0,0,0,0,0,0,0,0,0,0,0,0,0,0,0,0,0,0,0,0,0,0,0,0,0,0,0,0,0,0,0,0,0,0,0,0,0,0,0,0,0,0,0,0,0,0,0,0,0,0,0,0,0,0,0,0,0,0,0,0,0,0,0,0,0,0,0,0,0,0,0,0,0,0,0,0,0,0,0,0,0,0,0,0,0,0,0,0,0,0,0,0,0,0,0,0,0,0,0,0],"id":7,"left_children":[1,3,5,7,9,11,13,15,17,19,21,23,25,27,29,31,33,35,37,39,41,43,45,47,49,-1,-1,51,53,55,57,59,61,63,65,67,69,71,73,75,77,79,81,-1,83,-1,85,87,89,91,93,95,97,99,101,103,105,107,109,-1,-1,-1,-1,-1,-1,-1,-1,-1,-1,-1,-1,-1,-1,-1,-1,-1,-1,-1,-1,-1,-1,-1,-1,-1,-1,-1,-1,-1,-1,-1,-1,-1,-1,-1,-1,-1,-1,-1,-1,-1,-1,-1,-1,-1,-1,-1,-1,-1,-1,-1,-1],"loss_changes":[5.6346686E2,3.64343E2,4.631676E2,3.7937335E2,2.967041E2,3.935783E2,4.2510312E2,1.9802612E2,2.5674164E2,2.2952838E2,4.0079185E1,3.4983936E2,2.4774414E1,4.385121E2,1.8000967E2,1.25554016E2,9.6756775E1,2.771758E2,2.8055765E2,6.495119E1,2.3924182E2,1.1709152E1,3.9413395E0,2.1583559E2,4.402845E2,0E0,0E0,2.278247E2,4.3731964E2,1.1842041E2,1.21140625E2,3.480278E0,4.968045E1,1.1652234E2,2.3469479E1,2.2841075E2,1.7113425E2,7.02738E1,3.896637E1,7.5942955E0,3.308514E1,1.8756464E2,4.5043945E1,0E0,2.1153641E-1,0E0,5.846453E-1,2.2282516E1,1.4021518E2,3.0889133E2,1.9004602E2,1.2852582E2,3.6442383E1,2.742811E2,2.9940125E2,5.701648E1,3.7769924E1,9.973462E1,6.467251E1,0E0,0E0,0E0,0E0,0E0,0E0,0E0,0E0,0E0,0E0,0E0,0E0,0E0,0E0,0E0,0E0,0E0,0E0,0E0,0E0,0E0,0E0,0E0,0E0,0E0,0E0,0E0,0E0,0E0,0E0,0E0,0E0,0E0,0E0,0E0,0E0,0E0,0E0,0E0,0E0,0E0,0E0,0E0,0E0,0E0,0E0,0E0,0E0,0E0,0E0,0E0,0E0],"parents":[2147483647,0,0,1,1,2,2,3,3,4,4,5,5,6,6,7,7,8,8,9,9,10,10,11,11,12,12,13,13,14,14,15,15,16,16,17,17,18,18,19,19,20,20,21,21,22,22,23,23,24,24,27,27,28,28,29,29,30,30,31,31,32,32,33,33,34,34,35,35,36,36,37,37,38,38,39,39,40,40,41,41,42,42,44,44,46,46,47,47,48,48,49,49,50,50,51,51,52,52,53,53,54,54,55,55,56,56,57,57,58,58],"right_children":[2,4,6,8,10,12,14,16,18,20,22,24,26,28,30,32,34,36,38,40,42,44,46,48,50,-1,-1,52,54,56,58,60,62,64,66,68,70,72,74,76,78,80,82,-1,84,-1,86,88,90,92,94,96,98,100,102,104,106,108,110,-1,-1,-1,-1,-1,-1,-1,-1,-1,-1,-1,-1,-1,-1,-1,-1,-1,-1,-1,-1,-1,-1,-1,-1,-1,-1,-1,-1,-1,-1,-1,-1,-1,-1,-1,-1,-1,-1,-1,-1,-1,-1,-1,-1,-1,-1,-1,-1,-1,-1,-1,-1],"split_conditions":[1.6878965E-1,5.5838776E-1,2.2144912E-1,2.098039E-1,5.331493E-1,1.3492781E-1,-9.3955594E-1,-7.323019E-1,8.729655E-1,-9.653086E-1,-6.734891E-1,-1.1500199E-1,-2.141941E-1,5.5483866E-1,-3.7371352E-1,-2.024572E-2,-1.3182512E-1,3.7382716E-1,4.0180486E-1,4.8963748E-2,3.598734E-1,-4.4169566E-1,7.8348714E-1,4.660914E-1,-6.057452E-2,2.781099E-1,1.7856435E-1,6.153509E-1,-1.4318724E-1,3.0164747E-3,2.6940694E-1,-4.7960764E-1,1.9481401E-1,2.1328154E-1,1.1902826E0,2.3017456E-1,-7.321371E-1,8.871232E-1,-2.6312235E-1,1.6065166E0,-1.5126483E-1,-1.6591195E-2,7.1981233E-1,1.2324036E-1,-3.127508E-1,-1.2397068E-4,-2.984007E-1,-2.4345972E-1,-3.3213118E-1,-1.8253465E-1,-2.271654E-1,1.8729089E-1,1.4930293E-1,-4.862595E-1,-5.6684546E-2,4.939321E-1,1.6332272E-1,-1.2548363E-1,4.627028E-1,-3.818588E-2,-6.723289E-2,4.8184283E-2,-5.5763563E-3,-3.4680646E-2,-8.050962E-2,6.726219E-2,-7.098337E-3,-7.954623E-3,3.253402E-2,2.947981E-2,1.037065E-1,5.6705275E-3,-6.9548264E-2,-7.371537E-2,-1.721089E-1,7.945552E-2,3.8360205E-2,-1.6569112E-3,-6.575949E-2,-3.1245336E-2,-8.30633E-2,-1.6135238E-1,-9.177597E-2,6.358981E-2,7.327818E-2,3.8854476E-2,2.6103016E-2,-1.6387045E-1,-8.5864484E-2,-8.739953E-3,5.9792455E-2,-2.1135021E-2,4.2823095E-2,7.3880464E-2,1.6970278E-1,7.56272E-2,1.7545073E-3,1.995759E-1,1.2091878E-1,1.19558156E-1,-4.7558356E-2,2.3992097E-1,8.529279E-3,6.2422853E-2,1.4483046E-3,-5.0142594E-2,8.3226E-3,-9.1364175E-2,-3.3582203E-2,-3.382879E-2,1.5206909E-2],"split_indices":[264,221,79,54,379,229,476,64,345,268,19,343,0,276,320,432,299,190,81,370,272,2,1,40,317,0,0,163,500,100,340,2,54,427,1,101,161,26,0,1,104,94,27,0,0,0,0,0,505,314,0,155,128,62,501,58,16,206,447,0,0,0,0,0,0,0,0,0,0,0,0,0,0,0,0,0,0,0,0,0,0,0,0,0,0,0,0,0,0,0,0,0,0,0,0,0,0,0,0,0,0,0,0,0,0,0,0,0,0,0,0],"split_type":[0,0,0,0,0,0,0,0,0,0,0,0,0,0,0,0,0,0,0,0,0,0,0,0,0,0,0,0,0,0,0,0,0,0,0,0,0,0,0,0,0,0,0,0,0,0,0,0,0,0,0,0,0,0,0,0,0,0,0,0,0,0,0,0,0,0,0,0,0,0,0,0,0,0,0,0,0,0,0,0,0,0,0,0,0,0,0,0,0,0,0,0,0,0,0,0,0,0,0,0,0,0,0,0,0,0,0,0,0,0,0],"sum_hessian":[4.58056E5,1.79017E5,2.79039E5,1.23196E5,5.5821E4,6.5954E4,2.13085E5,3.2134E4,9.1062E4,5.2354E4,3.467E3,6.503E4,9.24E2,1.77205E5,3.588E4,8.451E3,2.3683E4,8.3346E4,7.716E3,8.46E3,4.3894E4,1.55E3,1.917E3,1.9475E4,4.5555E4,4.26E2,4.98E2,1.092E4,1.66285E5,1.0036E4,2.5844E4,1.938E3,6.513E3,2.0644E4,3.039E3,6.6956E4,1.639E4,5.82E3,1.896E3,2.528E3,5.932E3,4.0519E4,3.375E3,5.41E2,1.009E3,5.02E2,1.415E3,1.806E3,1.7669E4,3.5509E4,1.0046E4,8.626E3,2.294E3,1.8779E4,1.47506E5,5.579E3,4.457E3,1.0875E4,1.4969E4,5.08E2,1.43E3,3.985E3,2.528E3,1.2179E4,8.465E3,4.47E2,2.592E3,5.0247E4,1.6709E4,1.2815E4,3.575E3,4.312E3,1.508E3,4.91E2,1.405E3,5.07E2,2.021E3,5.088E3,8.44E2,3.2738E4,7.781E3,1.577E3,1.798E3,5.17E2,4.92E2,5.2E2,8.95E2,4.36E2,1.37E3,1.4365E4,3.304E3,9.157E3,2.6352E4,7.575E3,2.471E3,4.878E3,3.748E3,8.43E2,1.451E3,9.29E2,1.785E4,5.04E2,1.47002E5,3.076E3,2.503E3,2.96E3,1.497E3,6.004E3,4.871E3,1.1933E4,3.036E3],"tree_param":{"num_deleted":"0","num_feature":"512","num_nodes":"111","size_leaf_vector":"1"}},{"base_weights":[2.309915E-7,-3.584674E-2,1.9732857E-2,-7.68688E-2,-1.3161216E-2,-2.1053914E-2,4.336631E-2,4.5697015E-2,-9.269227E-2,-2.3858018E-2,9.2875175E-2,-7.8047074E-2,1.793367E-2,1.9535609E-1,3.3616755E-2,2.5873885E-1,6.184392E-3,-2.6525882E-1,-7.982674E-2,-1.9999808E-2,-4.5225492E-1,1.9368993E-1,-2.537552E-2,-1.06529444E-1,1.170924E-1,-2.355358E-2,1.2839848E-1,3.2751858E-1,1.0107378E-1,1.5030473E-2,1.3173366E-1,8.633642E-2,6.792261E-2,5.7992443E-2,-5.585324E-2,-1.4636767E-1,-3.352325E-1,-1.5217806E-1,-4.0629197E-2,-3.286905E-2,6.594838E-2,-1.09780654E-1,-1.6161898E-1,2.7369493E-1,1.0373608E-1,-6.567021E-2,4.7160786E-2,-1.5460612E-1,4.8965875E-2,9.590715E-3,3.7080094E-1,-1.05707064E-1,3.257277E-2,8.709831E-2,3.8497984E-1,5.188662E-1,2.1969692E-1,1.1951009E-1,-5.1533535E-2,5.8397718E-2,-2.7403964E-2,5.3923E-2,2.8076923E-1,1.4499052E-2,3.1031858E-2,-9.358303E-3,-2.649861E-2,-3.175876E-2,-4.8971962E-2,-1.0489672E-1,-8.624345E-2,-8.653941E-2,-3.1270947E-2,-6.3673444E-3,-8.3091326E-2,-1.5612167E-2,1.4937335E-2,1.03587076E-1,8.605404E-3,9.595663E-2,7.513949E-2,1.8592546E-2,4.979827E-2,-1.55350715E-2,-4.4284184E-2,1.1608656E-2,1.54656535E-2,2.6866786E-2,-5.702912E-2,6.2775776E-2,-3.1648797E-3,2.575614E-2,-6.550774E-2,9.113571E-2,1.3880438E-1,-8.3410285E-2,-2.1457905E-2,-2.5569804E-2,2.4260404E-2,-2.2409325E-2,4.7774505E-2,8.274529E-2,1.3839684E-1,1.3680677E-1,1.8348879E-1,8.88266E-2,4.3023907E-2,1.9867295E-2,5.354746E-2,1.1664004E-2,9.334779E-2,-2.3196418E-2,1.9602705E-2,2.8223017E-2,-3.2754544E-2,1.2134047E-2,1.0215494E-1],"categories":[],"categories_nodes":[],"categories_segments":[],"categories_sizes":[],"default_left":[0,0,0,0,0,0,0,0,0,0,0,0,0,0,0,0,0,0,0,0,0,0,0,0,0,0,0,0,0,0,0,0,0,0,0,0,0,0,0,0,0,0,0,0,0,0,0,0,0,0,0,0,0,0,0,0,0,0,0,0,0,0,0,0,0,0,0,0,0,0,0,0,0,0,0,0,0,0,0,0,0,0,0,0,0,0,0,0,0,0,0,0,0,0,0,0,0,0,0,0,0,0,0,0,0,0,0,0,0,0,0,0,0,0,0,0,0],"id":8,"left_children":[1,3,5,7,9,11,13,15,17,19,21,23,25,27,29,31,33,35,37,39,41,43,45,47,49,51,53,55,57,59,61,-1,-1,63,65,67,69,71,73,75,77,-1,-1,79,81,83,85,87,89,91,93,95,97,99,101,103,105,107,-1,109,111,113,115,-1,-1,-1,-1,-1,-1,-1,-1,-1,-1,-1,-1,-1,-1,-1,-1,-1,-1,-1,-1,-1,-1,-1,-1,-1,-1,-1,-1,-1,-1,-1,-1,-1,-1,-1,-1,-1,-1,-1,-1,-1,-1,-1,-1,-1,-1,-1,-1,-1,-1,-1,-1,-1,-1],"loss_changes":[3.2400955E2,1.5133987E2,2.8477734E2,1.12313934E2,1.1877865E2,2.4083344E2,2.7716876E2,5.5741344E1,1.13846375E2,1.572146E2,1.1440281E2,2.4471051E2,2.949527E2,1.4045999E2,3.2054626E2,9.0782166E-1,1.796013E1,2.9550827E1,1.353587E2,1.04278595E2,6.1401978E0,3.725081E1,1.2913229E1,2.8721637E2,1.5294955E2,2.1574174E2,1.8617438E2,9.672986E1,3.3130554E1,2.7195956E2,3.2461884E2,0E0,0E0,1.3321266E0,2.033702E0,8.8481903E-1,1.4416504E0,1.0955478E2,1.4198125E2,1.2994647E2,1.2779564E2,0E0,0E0,2.859085E0,6.3336105E0,3.2240582E0,5.6666374E-2,2.543161E2,8.656398E1,6.851232E1,1.0136124E1,1.1184216E2,1.58162E2,1.7671506E2,2.0173798E1,9.578918E0,1.7463211E1,1.9367126E1,0E0,3.605548E2,3.4581726E2,1.2047092E2,1.3785742E2,0E0,0E0,0E0,0E0,0E0,0E0,0E0,0E0,0E0,0E0,0E0,0E0,0E0,0E0,0E0,0E0,0E0,0E0,0E0,0E0,0E0,0E0,0E0,0E0,0E0,0E0,0E0,0E0,0E0,0E0,0E0,0E0,0E0,0E0,0E0,0E0,0E0,0E0,0E0,0E0,0E0,0E0,0E0,0E0,0E0,0E0,0E0,0E0,0E0,0E0,0E0,0E0,0E0,0E0],"parents":[2147483647,0,0,1,1,2,2,3,3,4,4,5,5,6,6,7,7,8,8,9,9,10,10,11,11,12,12,13,13,14,14,15,15,16,16,17,17,18,18,19,19,20,20,21,21,22,22,23,23,24,24,25,25,26,26,27,27,28,28,29,29,30,30,33,33,34,34,35,35,36,36,37,37,38,38,39,39,40,40,43,43,44,44,45,45,46,46,47,47,48,48,49,49,50,50,51,51,52,52,53,53,54,54,55,55,56,56,57,57,59,59,60,60,61,61,62,62],"right_children":[2,4,6,8,10,12,14,16,18,20,22,24,26,28,30,32,34,36,38,40,42,44,46,48,50,52,54,56,58,60,62,-1,-1,64,66,68,70,72,74,76,78,-1,-1,80,82,84,86,88,90,92,94,96,98,100,102,104,106,108,-1,110,112,114,116,-1,-1,-1,-1,-1,-1,-1,-1,-1,-1,-1,-1,-1,-1,-1,-1,-1,-1,-1,-1,-1,-1,-1,-1,-1,-1,-1,-1,-1,-1,-1,-1,-1,-1,-1,-1,-1,-1,-1,-1,-1,-1,-1,-1,-1,-1,-1,-1,-1,-1,-1,-1,-1,-1],"split_conditions":[1.7759043E-1,7.3448606E-2,-1.3918701E-1,-4.56748E-1,-6.5335765E-2,-6.4362365E-1,-1.3681865E-1,-3.0694583E-1,-6.0886294E-1,-1.3854423E-1,-8.430194E-1,2.625753E-1,9.6895106E-2,-1.0523345E-1,4.956254E-1,-2.7056643E-1,-2.8782788E-1,3.0152515E-1,2.9811302E-1,-6.747691E-2,-2.2052896E-1,-3.121785E-1,1.838927E-1,-1.5913585E-1,4.786485E-3,6.722258E-2,4.0837556E-1,-8.3665824E-1,4.8838156E-1,2.4524469E-2,-1.0709632E-1,8.633642E-2,6.792261E-2,2.334532E-1,-1.8436494E-1,-2.1515435E-1,4.1987E-1,1.6343431E-1,4.9231339E-1,4.489839E-1,1.0215473E-1,-1.09780654E-1,-1.6161898E-1,-4.4059283E-1,8.509383E-2,7.693824E-2,-2.8355274E-1,-2.7879146E-1,-1.6406555E-1,2.2849262E-1,-2.0312986E-1,1.4974685E-1,-4.89751E-2,3.4041345E-1,1.3325227E0,-2.2557554E-1,-3.539007E-1,3.5899258E-1,-5.1533535E-2,-1.1343499E-2,7.546097E-1,-1.3290207E-1,3.8963147E-3,1.4499052E-2,3.1031858E-2,-9.358303E-3,-2.649861E-2,-3.175876E-2,-4.8971962E-2,-1.0489672E-1,-8.624345E-2,-8.653941E-2,-3.1270947E-2,-6.3673444E-3,-8.3091326E-2,-1.5612167E-2,1.4937335E-2,1.03587076E-1,8.605404E-3,9.595663E-2,7.513949E-2,1.8592546E-2,4.979827E-2,-1.55350715E-2,-4.4284184E-2,1.1608656E-2,1.54656535E-2,2.6866786E-2,-5.702912E-2,6.2775776E-2,-3.1648797E-3,2.575614E-2,-6.550774E-2,9.113571E-2,1.3880438E-1,-8.3410285E-2,-2.1457905E-2,-2.5569804E-2,2.4260404E-2,-2.2409325E-2,4.7774505E-2,8.274529E-2,1.3839684E-1,1.3680677E-1,1.8348879E-1,8.88266E-2,4.3023907E-2,1.9867295E-2,5.354746E-2,1.1664004E-2,9.334779E-2,-2.3196418E-2,1.9602705E-2,2.8223017E-2,-3.2754544E-2,1.2134047E-2,1.0215494E-1],"split_indices":[307,422,500,141,6,19,500,18,20,311,13,93,426,107,152,0,314,29,151,262,0,18,7,310,126,203,144,218,40,102,421,0,0,8,46,0,5,75,379,259,84,0,0,21,7,4,0,125,286,8,0,138,507,33,1,0,22,33,0,87,281,38,103,0,0,0,0,0,0,0,0,0,0,0,0,0,0,0,0,0,0,0,0,0,0,0,0,0,0,0,0,0,0,0,0,0,0,0,0,0,0,0,0,0,0,0,0,0,0,0,0,0,0,0,0,0,0],"split_type":[0,0,0,0,0,0,0,0,0,0,0,0,0,0,0,0,0,0,0,0,0,0,0,0,0,0,0,0,0,0,0,0,0,0,0,0,0,0,0,0,0,0,0,0,0,0,0,0,0,0,0,0,0,0,0,0,0,0,0,0,0,0,0,0,0,0,0,0,0,0,0,0,0,0,0,0,0,0,0,0,0,0,0,0,0,0,0,0,0,0,0,0,0,0,0,0,0,0,0,0,0,0,0,0,0,0,0,0,0,0,0,0,0,0,0,0,0],"sum_hessian":[4.58056E5,1.62625E5,2.95431E5,5.7908E4,1.04717E5,1.08383E5,1.87048E5,6.621E3,5.1287E4,9.5122E4,9.595E3,4.4025E4,6.4358E4,1.1274E4,1.75774E5,1.035E3,5.586E3,3.557E3,4.773E4,9.4274E4,8.48E2,5.179E3,4.416E3,3.8418E4,5.607E3,4.6787E4,1.7571E4,4.693E3,6.581E3,1.47781E5,2.7993E4,5.41E2,4.94E2,3.044E3,2.542E3,1.319E3,2.238E3,1.6771E4,3.0959E4,8.1997E4,1.2277E4,4.27E2,4.21E2,2.74E3,2.439E3,2.839E3,1.577E3,2.9345E4,9.073E3,3.939E3,1.668E3,1.899E4,2.7797E4,1.5136E4,2.435E3,1.69E3,3.003E3,6.165E3,4.16E2,7.3087E4,7.4694E4,1.8392E4,9.601E3,2.512E3,5.32E2,1.446E3,1.096E3,3.9E2,9.29E2,1.714E3,5.24E2,4.363E3,1.2408E4,2.8611E4,2.348E3,6.656E4,1.5437E4,1.444E3,1.0833E4,9.13E2,1.827E3,1.461E3,9.78E2,2.429E3,4.1E2,5.42E2,1.035E3,3.724E3,2.5621E4,2.456E3,6.617E3,2.952E3,9.87E2,9.67E2,7.01E2,3.142E3,1.5848E4,8.082E3,1.9715E4,4.668E3,1.0468E4,1.004E3,1.431E3,1.011E3,6.79E2,1.499E3,1.504E3,3.24E3,2.925E3,6.7849E4,5.238E3,4.8559E4,2.6135E4,1.4759E4,3.633E3,1.912E3,7.689E3],"tree_param":{"num_deleted":"0","num_feature":"512","num_nodes":"117","size_leaf_vector":"1"}},{"base_weights":[1.8559944E-6,-2.8562227E-2,1.4985372E-2,-2.3872895E-2,-1.9715273E-1,6.003381E-2,-2.1446084E-3,-3.73736E-2,3.7004825E-2,2.0432929E-2,-3.09707E-1,8.04824E-2,-5.814924E-2,2.998288E-2,-3.0468866E-2,-2.0547586E-2,-1.02152765E-1,-3.0558288E-1,5.0194148E-2,-2.4260397E-3,9.950986E-3,-1.3813524E-1,-2.3164749E-1,-2.6930274E-2,1.07336044E-1,5.875655E-3,-2.9502884E-1,-2.2199251E-1,3.7458785E-2,-8.696822E-2,6.8819677E-3,-1.6726345E-1,-1.3041537E-2,-3.426112E-1,-7.134154E-2,-8.063777E-2,-1.0169857E-1,-4.725128E-2,1.04893945E-1,-2.4873623E-1,-5.542372E-2,1.4883325E-1,-8.532203E-2,-1.0069852E-2,1.2783423E-1,3.736869E-2,-1.6958955E-1,-1.210116E-1,-2.6746124E-1,-1.3083965E-1,-4.225253E-1,-6.774886E-3,8.778804E-2,7.516461E-3,-1.4259641E-1,-2.5711013E-3,3.1672108E-1,-3.593159E-2,-1.2065544E-1,-2.2818558E-2,1.863949E-3,-4.2653593E-1,-1.0053068E-1,-5.34245E-2,-8.667648E-3,-3.9356E-2,5.681104E-3,4.770071E-2,-3.382766E-3,-7.989324E-2,-7.2749734E-2,2.0020011E-1,3.814784E-2,-3.3164304E-2,5.4118454E-2,5.798926E-2,-1.646991E-2,-3.7139107E-2,4.1922387E-2,5.074814E-2,5.5861427E-3,-3.4241255E-2,-8.985604E-2,-8.625459E-2,-6.127668E-2,-4.37819E-2,-2.4324289E-2,-1.18296474E-1,-1.3663942E-1,-1.9979002E-2,1.6884647E-2,7.953284E-2,2.0149669E-2,4.0557526E-2,-1.2386792E-2,-6.619722E-2,-3.0152168E-2,-1.2052548E-2,1.6336178E-2,1.2906994E-1,6.0101695E-2],"categories":[],"categories_nodes":[],"categories_segments":[],"categories_sizes":[],"default_left":[0,0,0,0,0,0,0,0,0,0,0,0,0,0,0,0,0,0,0,0,0,0,0,0,0,0,0,0,0,0,0,0,0,0,0,0,0,0,0,0,0,0,0,0,0,0,0,0,0,0,0,0,0,0,0,0,0,0,0,0,0,0,0,0,0,0,0,0,0,0,0,0,0,0,0,0,0,0,0,0,0,0,0,0,0,0,0,0,0,0,0,0,0,0,0,0,0,0,0,0,0],"id":9,"left_children":[1,3,5,7,9,11,13,15,17,19,21,23,25,27,29,31,33,35,37,-1,-1,-1,39,41,43,45,47,49,51,53,55,57,59,61,63,-1,-1,65,67,69,-1,71,73,75,77,79,81,-1,83,85,87,89,91,93,95,97,99,-1,-1,-1,-1,-1,-1,-1,-1,-1,-1,-1,-1,-1,-1,-1,-1,-1,-1,-1,-1,-1,-1,-1,-1,-1,-1,-1,-1,-1,-1,-1,-1,-1,-1,-1,-1,-1,-1,-1,-1,-1,-1,-1,-1],"loss_changes":[1.9604443E2,1.2459419E2,2.3185335E2,1.26031136E2,1.04456985E2,2.0004272E2,1.9808694E2,1.3679852E2,1.25783295E2,5.288063E-1,3.2970337E1,2.0354211E2,1.8518092E2,1.92137E2,2.4413675E2,1.09717094E2,1.9170093E2,1.1774673E0,1.4287152E2,0E0,0E0,0E0,1.4400177E0,1.4486667E2,1.3585907E2,5.312712E1,7.6517334E0,5.36671E1,2.2052153E2,2.4199838E2,2.0399203E2,5.4050964E1,1.1501372E2,2.333966E1,1.0393722E2,0E0,0E0,5.354122E1,1.07909515E2,8.405304E-2,0E0,3.9472443E1,7.103693E1,7.651987E1,1.4401721E2,2.0136833E1,1.0506603E1,0E0,2.5701141E0,1.5074081E0,6.7323303E-1,1.9887709E2,1.6942032E2,1.063301E2,9.519226E1,1.4493175E2,2.7154404E1,0E0,0E0,0E0,0E0,0E0,0E0,0E0,0E0,0E0,0E0,0E0,0E0,0E0,0E0,0E0,0E0,0E0,0E0,0E0,0E0,0E0,0E0,0E0,0E0,0E0,0E0,0E0,0E0,0E0,0E0,0E0,0E0,0E0,0E0,0E0,0E0,0E0,0E0,0E0,0E0,0E0,0E0,0E0,0E0],"parents":[2147483647,0,0,1,1,2,2,3,3,4,4,5,5,6,6,7,7,8,8,9,9,10,10,11,11,12,12,13,13,14,14,15,15,16,16,17,17,18,18,22,22,23,23,24,24,25,25,26,26,27,27,28,28,29,29,30,30,31,31,32,32,33,33,34,34,37,37,38,38,39,39,41,41,42,42,43,43,44,44,45,45,46,46,48,48,49,49,50,50,51,51,52,52,53,53,54,54,55,55,56,56],"right_children":[2,4,6,8,10,12,14,16,18,20,22,24,26,28,30,32,34,36,38,-1,-1,-1,40,42,44,46,48,50,52,54,56,58,60,62,64,-1,-1,66,68,70,-1,72,74,76,78,80,82,-1,84,86,88,90,92,94,96,98,100,-1,-1,-1,-1,-1,-1,-1,-1,-1,-1,-1,-1,-1,-1,-1,-1,-1,-1,-1,-1,-1,-1,-1,-1,-1,-1,-1,-1,-1,-1,-1,-1,-1,-1,-1,-1,-1,-1,-1,-1,-1,-1,-1,-1],"split_conditions":[4.3233368E-1,7.879147E-1,2.5518435E-1,-3.3396035E-1,1.7870323E-3,9.085142E-2,2.789871E-1,-1.2377938E-1,-2.8946507E-1,-2.1867438E-1,-2.6104122E-1,2.0140721E-1,9.551664E-1,-4.4320866E-1,1.2619136E-1,-3.5822746E-1,-8.9599496E-1,-2.7855614E-1,3.275966E-1,-2.4260397E-3,9.950986E-3,-1.3813524E-1,-2.094184E-1,4.2162892E-1,-4.9856685E-2,-3.2289603E-1,3.352756E-1,-4.4642872E-1,9.263381E-2,-5.559656E-1,1.13379635E-1,7.546327E-2,-2.2174896E-1,-4.427844E-1,-1.0414595E-1,-8.063777E-2,-1.0169857E-1,-3.389802E-1,5.456183E-4,-2.66396E-1,-5.542372E-2,-3.0369997E-1,5.2658737E-1,-7.2041845E-1,-4.6688667E-1,7.9384364E-2,-3.355233E-1,-1.210116E-1,-2.2169182E-1,1.1881322E0,-2.2886302E-1,-3.1368858E-1,-8.349414E-1,4.6933305E-2,9.756854E-2,3.850181E-2,-1.5297551E-1,-3.593159E-2,-1.2065544E-1,-2.2818558E-2,1.863949E-3,-4.2653593E-1,-1.0053068E-1,-5.34245E-2,-8.667648E-3,-3.9356E-2,5.681104E-3,4.770071E-2,-3.382766E-3,-7.989324E-2,-7.2749734E-2,2.0020011E-1,3.814784E-2,-3.3164304E-2,5.4118454E-2,5.798926E-2,-1.646991E-2,-3.7139107E-2,4.1922387E-2,5.074814E-2,5.5861427E-3,-3.4241255E-2,-8.985604E-2,-8.625459E-2,-6.127668E-2,-4.37819E-2,-2.4324289E-2,-1.18296474E-1,-1.3663942E-1,-1.9979002E-2,1.6884647E-2,7.953284E-2,2.0149669E-2,4.0557526E-2,-1.2386792E-2,-6.619722E-2,-3.0152168E-2,-1.2052548E-2,1.6336178E-2,1.2906994E-1,6.0101695E-2],"split_indices":[150,281,435,464,88,344,327,500,184,0,46,253,73,31,232,204,218,0,352,0,0,0,0,131,72,214,5,25,14,187,263,389,95,2,300,0,0,214,180,0,0,3,131,56,2,467,2,0,0,1,0,18,161,380,200,271,0,0,0,0,0,0,0,0,0,0,0,0,0,0,0,0,0,0,0,0,0,0,0,0,0,0,0,0,0,0,0,0,0,0,0,0,0,0,0,0,0,0,0,0,0],"split_type":[0,0,0,0,0,0,0,0,0,0,0,0,0,0,0,0,0,0,0,0,0,0,0,0,0,0,0,0,0,0,0,0,0,0,0,0,0,0,0,0,0,0,0,0,0,0,0,0,0,0,0,0,0,0,0,0,0,0,0,0,0,0,0,0,0,0,0,0,0,0,0,0,0,0,0,0,0,0,0,0,0,0,0,0,0,0,0,0,0,0,0,0,0,0,0,0,0,0,0,0,0],"sum_hessian":[4.58056E5,1.57604E5,3.00452E5,1.5334E5,4.264E3,8.2773E4,2.17679E5,1.25507E5,2.7833E4,1.454E3,2.81E3,7.0564E4,1.2209E4,1.01992E5,1.15687E5,9.963E4,2.5877E4,1.031E3,2.6802E4,4.49E2,1.005E3,9.57E2,1.853E3,1.4113E4,5.6451E4,9.612E3,2.597E3,2.938E3,9.9054E4,4.6041E4,6.9646E4,4.848E3,9.4782E4,2.938E3,2.2939E4,4.95E2,5.36E2,9.636E3,1.7166E4,1.355E3,4.98E2,3.519E3,1.0594E4,8.391E3,4.806E4,8.15E3,1.462E3,5.24E2,2.073E3,2.021E3,9.17E2,5.272E4,4.6334E4,1.7062E4,2.8979E4,6.7585E4,2.061E3,4.034E3,8.14E2,2.2181E4,7.2601E4,1.9E1,2.919E3,6.526E3,1.6413E4,4.248E3,5.388E3,1.1711E4,5.455E3,3.44E2,1.011E3,1.4E2,3.379E3,9.676E3,9.18E2,1.515E3,6.876E3,2.171E3,4.5889E4,1.014E3,7.136E3,1.026E3,4.36E2,1.571E3,5.02E2,1.549E3,4.72E2,5.01E2,4.16E2,2.7054E4,2.5666E4,4.826E3,4.1508E4,4.718E3,1.2344E4,1.015E4,1.8829E4,4.0728E4,2.6857E4,1.042E3,1.019E3],"tree_param":{"num_deleted":"0","num_feature":"512","num_nodes":"101","size_leaf_vector":"1"}},{"base_weights":[-1.7764173E-6,1.9851336E-2,-1.695525E-2,1.15878895E-1,1.1821032E-2,-2.7136918E-2,3.3976994E-2,2.8474367E-1,5.0364107E-2,-2.4776397E-2,3.7677936E-2,-9.917699E-2,-1.1491851E-2,-4.8406594E-2,8.189903E-2,3.2388818E-1,2.0370601E-1,9.143832E-2,-9.6832834E-2,1.0611721E-1,-3.6618177E-2,-4.4759076E-2,6.887196E-2,-1.576149E-1,-2.830219E-2,-4.706922E-2,3.8555004E-3,-1.4314274E-1,1.55071495E-2,4.7236092E-2,1.743399E-1,2.9926434E-1,1.1225601E-1,7.342667E-2,1.828715E-1,6.086852E-2,2.3774925E-1,-5.5430617E-2,-8.6784326E-2,1.9906658E-1,1.7612116E-2,1.6679902E-2,-7.5130045E-2,2.6320088E-1,-7.064646E-2,4.509474E-3,9.8554134E-2,-6.0080193E-2,-2.1787378E-1,-1.8242574E-1,1.6970428E-2,-8.278755E-2,1.8084617E-2,-1.827482E-2,4.2521484E-2,-5.3278107E-2,-2.0191687E-1,2.816355E-1,-1.7475506E-2,-5.465465E-2,7.702723E-2,8.709909E-3,2.1478765E-1,7.896886E-2,9.342517E-2,5.872944E-2,5.0976615E-2,-4.8528938E-4,3.0733213E-2,9.336245E-2,6.1436217E-2,-2.6018323E-2,1.3937967E-2,8.184476E-2,4.2123545E-2,-1.2148343E-2,1.8244097E-2,3.501123E-2,-5.8010193E-3,-3.0303836E-2,1.1774147E-2,6.002944E-2,1.6757734E-1,4.587038E-4,-4.2466294E-2,3.1106064E-2,-1.7213415E-2,3.8073607E-2,-3.6700044E-3,-4.7486898E-2,1.6901225E-2,-4.6450157E-2,-1.0312935E-1,-1.8751476E-2,-9.92332E-2,-9.399651E-3,4.698063E-2,-2.0889524E-2,-7.7735215E-2,-4.424024E-3,4.4016633E-2,2.0654557E-2,-1.0123989E-2,-1.5656618E-2,2.509149E-2,-2.7719717E-2,5.3191804E-3,-5.103157E-2,-9.750753E-2,8.8411175E-2,8.031975E-2,1.3577178E-3,-5.366957E-2,-8.960906E-4,-3.5580996E-2,8.677024E-4,3.5921536E-2,-2.9783407E-2,2.0765068E-2,5.349358E-2,8.858856E-2],"categories":[],"categories_nodes":[],"categories_segments":[],"categories_sizes":[],"default_left":[0,0,0,0,0,0,0,0,0,0,0,0,0,0,0,0,0,0,0,0,0,0,0,0,0,0,0,0,0,0,0,0,0,0,0,0,0,0,0,0,0,0,0,0,0,0,0,0,0,0,0,0,0,0,0,0,0,0,0,0,0,0,0,0,0,0,0,0,0,0,0,0,0,0,0,0,0,0,0,0,0,0,0,0,0,0,0,0,0,0,0,0,0,0,0,0,0,0,0,0,0,0,0,0,0,0,0,0,0,0,0,0,0,0,0,0,0,0,0,0,0],"id":10,"left_children":[1,3,5,7,9,11,13,15,17,19,21,23,25,27,29,31,33,35,37,39,41,43,45,47,49,51,53,55,57,59,61,63,-1,-1,65,67,69,71,-1,73,75,77,79,81,83,85,87,89,91,93,95,97,99,101,103,105,107,109,111,113,115,117,119,-1,-1,-1,-1,-1,-1,-1,-1,-1,-1,-1,-1,-1,-1,-1,-1,-1,-1,-1,-1,-1,-1,-1,-1,-1,-1,-1,-1,-1,-1,-1,-1,-1,-1,-1,-1,-1,-1,-1,-1,-1,-1,-1,-1,-1,-1,-1,-1,-1,-1,-1,-1,-1,-1,-1,-1,-1,-1],"loss_changes":[1.5417282E2,1.6269638E2,1.2812631E2,1.8011572E2,1.8424954E2,2.320742E2,1.6251508E2,1.4370605E1,7.094051E1,1.2495201E2,2.9340323E2,1.5216022E2,9.23712E1,9.1667984E1,8.338295E1,3.6866455E0,1.2252846E0,4.1013573E1,2.038149E1,5.5015274E1,1.5173828E2,2.4972624E2,1.581326E2,1.18332855E2,1.1585878E2,1.1865075E2,1.0113399E2,3.220244E1,7.936339E1,5.7462086E1,4.7543472E1,8.218994E-1,0E0,0E0,1.3185883E-1,1.9715588E1,3.7740936E0,6.726187E0,0E0,1.4072281E1,8.605241E0,1.1171684E2,1.2704933E2,4.5164642E1,1.4787416E2,1.6036327E2,1.7797559E2,8.794251E1,9.871997E1,6.704929E1,8.6571495E1,7.637398E1,7.625041E1,1.0132545E2,1.6753986E2,6.7047787E0,1.4384003E1,1.02241516E-1,2.8572678E1,1.4151017E1,4.6377792E1,9.1153E0,1.669754E1,0E0,0E0,0E0,0E0,0E0,0E0,0E0,0E0,0E0,0E0,0E0,0E0,0E0,0E0,0E0,0E0,0E0,0E0,0E0,0E0,0E0,0E0,0E0,0E0,0E0,0E0,0E0,0E0,0E0,0E0,0E0,0E0,0E0,0E0,0E0,0E0,0E0,0E0,0E0,0E0,0E0,0E0,0E0,0E0,0E0,0E0,0E0,0E0,0E0,0E0,0E0,0E0,0E0,0E0,0E0,0E0,0E0,0E0],"parents":[2147483647,0,0,1,1,2,2,3,3,4,4,5,5,6,6,7,7,8,8,9,9,10,10,11,11,12,12,13,13,14,14,15,15,16,16,17,17,18,18,19,19,20,20,21,21,22,22,23,23,24,24,25,25,26,26,27,27,28,28,29,29,30,30,31,31,34,34,35,35,36,36,37,37,39,39,40,40,41,41,42,42,43,43,44,44,45,45,46,46,47,47,48,48,49,49,50,50,51,51,52,52,53,53,54,54,55,55,56,56,57,57,58,58,59,59,60,60,61,61,62,62],"right_children":[2,4,6,8,10,12,14,16,18,20,22,24,26,28,30,32,34,36,38,40,42,44,46,48,50,52,54,56,58,60,62,64,-1,-1,66,68,70,72,-1,74,76,78,80,82,84,86,88,90,92,94,96,98,100,102,104,106,108,110,112,114,116,118,120,-1,-1,-1,-1,-1,-1,-1,-1,-1,-1,-1,-1,-1,-1,-1,-1,-1,-1,-1,-1,-1,-1,-1,-1,-1,-1,-1,-1,-1,-1,-1,-1,-1,-1,-1,-1,-1,-1,-1,-1,-1,-1,-1,-1,-1,-1,-1,-1,-1,-1,-1,-1,-1,-1,-1,-1,-1,-1],"split_conditions":[3.4249356E-1,-6.823037E-2,5.5663776E-1,4.6460386E-2,2.0844494E-1,-1.5247342E-1,3.3103055E-1,-5.871431E-1,-3.5287252E-1,-3.555986E-1,-5.96121E-1,5.075063E-1,-9.049929E-2,1.4732096E-1,-9.3444295E-2,4.9781706E-2,9.300861E-1,-9.197607E-2,1.275623E0,-2.3069942E-1,1.670276E-1,-3.568017E-1,-1.6037233E-2,1.0502863E-1,3.5241553E-1,-3.9571628E-1,2.6789528E-1,4.684096E-1,-3.807766E-1,4.6492425E-1,-2.862311E-1,-3.6482865E-1,1.1225601E-1,7.342667E-2,-3.127508E-1,5.085643E-2,-3.095954E-1,-3.8792634E-1,-8.6784326E-2,1.9287586E-2,-3.7216404E-1,4.0017503E-1,2.586186E-1,-1.4371334E-1,1.819649E-1,9.582334E-2,8.367165E-2,-6.824555E-2,1.9054738E-1,3.0422783E-1,3.3550295E-1,4.52762E-1,5.0253147E-1,-7.323019E-1,-3.463168E-1,-2.2229788E-1,2.1904893E-1,-2.2498368E-1,2.3632798E-1,2.279383E-1,3.2654174E-2,-1.8037115E-1,6.159645E-1,7.896886E-2,9.342517E-2,5.872944E-2,5.0976615E-2,-4.8528938E-4,3.0733213E-2,9.336245E-2,6.1436217E-2,-2.6018323E-2,1.3937967E-2,8.184476E-2,4.2123545E-2,-1.2148343E-2,1.8244097E-2,3.501123E-2,-5.8010193E-3,-3.0303836E-2,1.1774147E-2,6.002944E-2,1.6757734E-1,4.587038E-4,-4.2466294E-2,3.1106064E-2,-1.7213415E-2,3.8073607E-2,-3.6700044E-3,-4.7486898E-2,1.6901225E-2,-4.6450157E-2,-1.0312935E-1,-1.8751476E-2,-9.92332E-2,-9.399651E-3,4.698063E-2,-2.0889524E-2,-7.7735215E-2,-4.424024E-3,4.4016633E-2,2.0654557E-2,-1.0123989E-2,-1.5656618E-2,2.509149E-2,-2.7719717E-2,5.3191804E-3,-5.103157E-2,-9.750753E-2,8.8411175E-2,8.031975E-2,1.3577178E-3,-5.366957E-2,-8.960906E-4,-3.5580996E-2,8.677024E-4,3.5921536E-2,-2.9783407E-2,2.0765068E-2,5.349358E-2,8.858856E-2],"split_indices":[301,411,32,494,120,173,379,495,83,489,170,97,322,336,241,47,1,149,1,342,51,375,86,128,301,31,306,397,136,316,204,2,0,0,0,101,0,2,0,4,22,337,51,3,143,392,344,28,143,151,338,436,423,64,274,44,8,0,61,61,351,0,163,0,0,0,0,0,0,0,0,0,0,0,0,0,0,0,0,0,0,0,0,0,0,0,0,0,0,0,0,0,0,0,0,0,0,0,0,0,0,0,0,0,0,0,0,0,0,0,0,0,0,0,0,0,0,0,0,0,0],"split_type":[0,0,0,0,0,0,0,0,0,0,0,0,0,0,0,0,0,0,0,0,0,0,0,0,0,0,0,0,0,0,0,0,0,0,0,0,0,0,0,0,0,0,0,0,0,0,0,0,0,0,0,0,0,0,0,0,0,0,0,0,0,0,0,0,0,0,0,0,0,0,0,0,0,0,0,0,0,0,0,0,0,0,0,0,0,0,0,0,0,0,0,0,0,0,0,0,0,0,0,0,0,0,0,0,0,0,0,0,0,0,0,0,0,0,0,0,0,0,0,0,0],"sum_hessian":[4.58056E5,2.10985E5,2.47071E5,1.6281E4,1.94704E5,2.05909E5,4.1162E4,4.55E3,1.1731E4,8.061E4,1.14094E5,3.6738E4,1.69171E5,1.5138E4,2.6024E4,3.066E3,1.484E3,9.172E3,2.559E3,6.687E3,7.3923E4,3.1321E4,8.2773E4,2.0135E4,1.6603E4,5.0983E4,1.18188E5,6.098E3,9.04E3,1.8928E4,7.096E3,2.063E3,1.003E3,4.96E2,9.88E2,7.588E3,1.584E3,2.107E3,4.52E2,3.261E3,3.426E3,3.1009E4,4.2914E4,2.428E3,2.8893E4,2.6125E4,5.6648E4,7.69E3,1.2445E4,3.769E3,1.2834E4,3.293E4,1.8053E4,7.5167E4,4.3021E4,2.412E3,3.686E3,9.96E2,8.044E3,4.282E3,1.4646E4,1.393E3,5.703E3,5.26E2,1.537E3,4.88E2,5E2,3.032E3,4.556E3,4.88E2,1.096E3,1.612E3,4.95E2,1.443E3,1.818E3,1.461E3,1.965E3,8.209E3,2.28E4,3.4995E4,7.919E3,2.002E3,4.26E2,1.4319E4,1.4574E4,1.0038E4,1.6087E4,4.5103E4,1.1545E4,4.171E3,3.519E3,8.294E3,4.151E3,2.085E3,1.684E3,9.536E3,3.298E3,3.0645E4,2.285E3,1.4383E4,3.67E3,1.1335E4,6.3832E4,1.3023E4,2.9998E4,1.555E3,8.57E2,2.931E3,7.55E2,5.03E2,4.93E2,7.08E3,9.64E2,2.369E3,1.913E3,5.354E3,9.292E3,5E2,8.93E2,3.927E3,1.776E3],"tree_param":{"num_deleted":"0","num_feature":"512","num_nodes":"121","size_leaf_vector":"1"}},{"base_weights":[3.1172107E-7,-7.3216367E-3,3.307241E-2,1.5716827E-2,-1.7974239E-2,1.2191524E-1,2.069039E-3,4.958344E-2,-8.853723E-3,-4.7185823E-2,-5.4722237E-3,-1.1294364E-1,1.5918101E-1,2.4250811E-2,-8.049291E-2,1.6570999E-1,2.9040491E-2,-4.5763504E-2,2.9932102E-2,1.8617848E-3,-8.066558E-2,-9.406683E-3,1.2010264E-1,1.0321122E-2,-2.5712374E-1,-1.1491491E-2,2.0477223E-1,-6.7876736E-3,1.5261753E-1,-3.731036E-1,-5.6069575E-2,2.0556886E-1,-7.168215E-4,-1.5734659E-1,4.2720452E-2,1.5398041E-2,-9.053364E-2,-4.568675E-2,6.9146864E-2,-5.980941E-2,5.852737E-2,1.1355139E-1,-8.6885646E-2,-4.5302925E-3,-1.19079135E-1,4.6653416E-2,2.5351572E-1,4.7532197E-2,-1.7744768E-2,-1.8556713E-1,-1.2095905E-1,4.1668877E-2,-9.4266735E-2,2.7832788E-1,9.287004E-2,3.6896515E-1,-1.3223832E-2,1.9423337E-1,1.438007E-2,-7.855224E-2,-1.5123443E-1,-2.3327904E-2,-2.3186389E-1,7.2744705E-2,3.887587E-2,3.9376435E-3,-7.6415595E-3,-2.5620278E-2,-9.059155E-2,1.6324695E-2,-3.3565678E-2,-5.723216E-3,2.5859687E-2,6.0545136E-3,-3.319525E-2,-9.577768E-3,-1.2257828E-1,3.914218E-2,-9.595927E-4,-1.4456269E-2,-1.4588752E-1,4.296024E-2,2.536139E-3,4.1640755E-2,1.7353665E-2,-1.4278607E-2,-3.443927E-2,1.6511284E-2,-4.1782404E-3,-6.91178E-2,7.260753E-3,2.249395E-2,-1.0044292E-2,1.17421895E-1,6.431426E-2,1.934144E-2,9.735059E-3,-6.488129E-2,-4.781385E-2,4.247181E-3,2.5837613E-2,-3.98536E-2,-2.2328049E-2,1.0649905E-1,4.9100477E-2,3.6014594E-2,1.0261796E-2,1.05182216E-1,1.3013715E-1,-2.4951799E-2,8.116101E-3,4.316709E-3,6.6886686E-2,-4.750051E-2,1.3155392E-2,-2.1040332E-2,2.391476E-2,-4.9777973E-2,-8.7934315E-2],"categories":[],"categories_nodes":[],"categories_segments":[],"categories_sizes":[],"default_left":[0,0,0,0,0,0,0,0,0,0,0,0,0,0,0,0,0,0,0,0,0,0,0,0,0,0,0,0,0,0,0,0,0,0,0,0,0,0,0,0,0,0,0,0,0,0,0,0,0,0,0,0,0,0,0,0,0,0,0,0,0,0,0,0,0,0,0,0,0,0,0,0,0,0,0,0,0,0,0,0,0,0,0,0,0,0,0,0,0,0,0,0,0,0,0,0,0,0,0,0,0,0,0,0,0,0,0,0,0,0,0,0,0,0,0,0,0,0,0],"id":11,"left_children":[1,3,5,7,9,11,13,15,17,19,21,23,25,27,29,31,33,35,37,39,41,43,45,47,49,51,53,55,57,59,61,63,65,67,69,71,73,75,77,79,81,83,85,87,89,91,93,95,-1,97,-1,99,101,103,105,107,109,111,113,-1,-1,115,117,-1,-1,-1,-1,-1,-1,-1,-1,-1,-1,-1,-1,-1,-1,-1,-1,-1,-1,-1,-1,-1,-1,-1,-1,-1,-1,-1,-1,-1,-1,-1,-1,-1,-1,-1,-1,-1,-1,-1,-1,-1,-1,-1,-1,-1,-1,-1,-1,-1,-1,-1,-1,-1,-1,-1,-1],"loss_changes":[1.1091974E2,9.203975E1,2.2869708E2,9.867255E1,9.365658E1,1.8800644E2,1.1272464E2,1.1893554E2,9.838216E1,1.2621376E2,8.87315E1,5.2288837E1,1.442496E2,1.9330771E2,9.3134094E1,4.971222E1,1.0802763E2,9.642199E1,9.93729E1,1.0897318E2,5.5193268E1,9.312839E1,5.3451996E1,4.1053114E0,1.409877E1,1.7204945E1,1.20394226E2,9.449436E1,5.4344574E1,1.4502975E1,6.924837E1,1.69263E1,4.968584E-1,3.0117966E1,7.1371895E1,3.6329437E1,4.528511E1,5.7137375E1,9.79059E1,7.3987206E1,6.890143E1,1.9865799E0,4.8536316E1,9.3327866E1,1.1823688E2,7.9926276E0,1.0368782E1,2.6207232E-1,0E0,6.9883347E-1,0E0,2.9109101E0,1.1604033E0,7.7538574E1,9.249832E0,6.3095856E-1,1.0822846E2,3.7503723E1,1.11390505E1,0E0,0E0,4.893133E1,7.5804596E0,0E0,0E0,0E0,0E0,0E0,0E0,0E0,0E0,0E0,0E0,0E0,0E0,0E0,0E0,0E0,0E0,0E0,0E0,0E0,0E0,0E0,0E0,0E0,0E0,0E0,0E0,0E0,0E0,0E0,0E0,0E0,0E0,0E0,0E0,0E0,0E0,0E0,0E0,0E0,0E0,0E0,0E0,0E0,0E0,0E0,0E0,0E0,0E0,0E0,0E0,0E0,0E0,0E0,0E0,0E0,0E0],"parents":[2147483647,0,0,1,1,2,2,3,3,4,4,5,5,6,6,7,7,8,8,9,9,10,10,11,11,12,12,13,13,14,14,15,15,16,16,17,17,18,18,19,19,20,20,21,21,22,22,23,23,24,24,25,25,26,26,27,27,28,28,29,29,30,30,31,31,32,32,33,33,34,34,35,35,36,36,37,37,38,38,39,39,40,40,41,41,42,42,43,43,44,44,45,45,46,46,47,47,49,49,51,51,52,52,53,53,54,54,55,55,56,56,57,57,58,58,61,61,62,62],"right_children":[2,4,6,8,10,12,14,16,18,20,22,24,26,28,30,32,34,36,38,40,42,44,46,48,50,52,54,56,58,60,62,64,66,68,70,72,74,76,78,80,82,84,86,88,90,92,94,96,-1,98,-1,100,102,104,106,108,110,112,114,-1,-1,116,118,-1,-1,-1,-1,-1,-1,-1,-1,-1,-1,-1,-1,-1,-1,-1,-1,-1,-1,-1,-1,-1,-1,-1,-1,-1,-1,-1,-1,-1,-1,-1,-1,-1,-1,-1,-1,-1,-1,-1,-1,-1,-1,-1,-1,-1,-1,-1,-1,-1,-1,-1,-1,-1,-1,-1,-1],"split_conditions":[-3.984937E-1,-1.2608469E-1,1.8322861E-1,-5.323088E-1,1.5058252E-1,-6.09561E-1,3.696497E-1,-4.1501358E-1,-3.645683E-1,-2.9264832E-1,2.2575337E-1,-3.100794E-1,-5.8151875E-3,4.3803617E-1,-1.0646344E0,4.901624E-2,-6.1233866E-1,-3.715398E-1,3.8133055E-1,-2.425161E-2,4.617206E-1,1.9685137E-1,4.143453E-1,-4.1038176E-1,3.6731476E-1,-4.68759E-1,-5.266467E-1,-3.0328384E-1,7.300479E-2,-2.6312235E-1,2.6927866E-2,-3.7507364E-1,-1.9269657E-1,-4.9695173E-1,1.1061195E-1,2.4521625E-1,3.2067662E-1,-1.6938116E-2,8.636821E-3,2.5478357E-1,-2.3095965E-1,-2.271654E-1,-8.104264E-1,-4.4259154E-3,-2.965942E-1,-1.607786E-1,-2.141941E-1,-1.0677048E-1,-1.7744768E-2,-1.4940783E-1,-1.2095905E-1,7.580787E-2,-2.8045002E-1,-7.3094517E-1,2.9529417E-1,-2.587778E-1,4.6103276E-2,3.328248E-1,-2.7867126E-1,-7.855224E-2,-1.5123443E-1,1.9941166E-2,2.800304E-1,7.2744705E-2,3.887587E-2,3.9376435E-3,-7.6415595E-3,-2.5620278E-2,-9.059155E-2,1.6324695E-2,-3.3565678E-2,-5.723216E-3,2.5859687E-2,6.0545136E-3,-3.319525E-2,-9.577768E-3,-1.2257828E-1,3.914218E-2,-9.595927E-4,-1.4456269E-2,-1.4588752E-1,4.296024E-2,2.536139E-3,4.1640755E-2,1.7353665E-2,-1.4278607E-2,-3.443927E-2,1.6511284E-2,-4.1782404E-3,-6.91178E-2,7.260753E-3,2.249395E-2,-1.0044292E-2,1.17421895E-1,6.431426E-2,1.934144E-2,9.735059E-3,-6.488129E-2,-4.781385E-2,4.247181E-3,2.5837613E-2,-3.98536E-2,-2.2328049E-2,1.0649905E-1,4.9100477E-2,3.6014594E-2,1.0261796E-2,1.05182216E-1,1.3013715E-1,-2.4951799E-2,8.116101E-3,4.316709E-3,6.6886686E-2,-4.750051E-2,1.3155392E-2,-2.1040332E-2,2.391476E-2,-4.9777973E-2,-8.7934315E-2],"split_indices":[167,421,39,363,224,363,185,375,297,330,407,6,263,69,60,86,85,414,410,432,221,407,152,2,5,64,412,125,344,0,482,320,0,2,434,253,251,226,43,67,310,0,303,459,402,0,0,0,0,0,0,8,0,74,257,0,258,394,6,0,0,494,5,0,0,0,0,0,0,0,0,0,0,0,0,0,0,0,0,0,0,0,0,0,0,0,0,0,0,0,0,0,0,0,0,0,0,0,0,0,0,0,0,0,0,0,0,0,0,0,0,0,0,0,0,0,0,0,0],"split_type":[0,0,0,0,0,0,0,0,0,0,0,0,0,0,0,0,0,0,0,0,0,0,0,0,0,0,0,0,0,0,0,0,0,0,0,0,0,0,0,0,0,0,0,0,0,0,0,0,0,0,0,0,0,0,0,0,0,0,0,0,0,0,0,0,0,0,0,0,0,0,0,0,0,0,0,0,0,0,0,0,0,0,0,0,0,0,0,0,0,0,0,0,0,0,0,0,0,0,0,0,0,0,0,0,0,0,0,0,0,0,0,0,0,0,0,0,0,0,0],"sum_hessian":[4.58056E5,3.75028E5,8.3028E4,1.18578E5,2.5645E5,2.1478E4,6.155E4,4.9857E4,6.8721E4,7.686E4,1.7959E5,2.941E3,1.8537E4,4.8516E4,1.3034E4,7.493E3,4.2364E4,3.5212E4,3.3509E4,3.1181E4,4.5679E4,1.74135E5,5.455E3,1.586E3,1.355E3,3.908E3,1.4629E4,3.907E4,9.446E3,1.003E3,1.2031E4,6.045E3,1.448E3,2.896E3,3.9468E4,1.4882E4,2.033E4,1.1443E4,2.2066E4,1.4931E4,1.625E4,1.417E3,4.4262E4,1.66723E5,7.412E3,3.519E3,1.936E3,1.033E3,5.53E2,9.11E2,4.44E2,2.38E3,1.528E3,8.826E3,5.803E3,6.57E2,3.8413E4,7.26E3,2.186E3,5.44E2,4.59E2,1.0143E4,1.888E3,4.067E3,1.978E3,9.29E2,5.19E2,1.935E3,9.61E2,3.6693E4,2.775E3,1.0009E4,4.873E3,3.126E3,1.7204E4,1.1026E4,4.17E2,1.1942E4,1.0124E4,1.4536E4,3.95E2,6.038E3,1.0212E4,9.74E2,4.43E2,1.8385E4,2.5877E4,2.2717E4,1.44006E5,4.171E3,3.241E3,2.6E3,9.19E2,4.26E2,1.51E3,4.85E2,5.48E2,4.16E2,4.95E2,1.471E3,9.09E2,5.17E2,1.011E3,5.288E3,3.538E3,3.965E3,1.838E3,5.17E2,1.4E2,1.4036E4,2.4377E4,1E3,6.26E3,3.18E2,1.868E3,6.975E3,3.168E3,9.11E2,9.77E2],"tree_param":{"num_deleted":"0","num_feature":"512","num_nodes":"119","size_leaf_vector":"1"}},{"base_weights":[-2.9484795E-7,-6.091208E-2,3.0024715E-3,1.1717485E-2,-9.776696E-2,7.4920576E-4,1.05202354E-1,4.982108E-2,-1.4586309E-1,-1.8036485E-1,-5.1474374E-2,-3.5070404E-2,5.383487E-3,1.6906501E-1,-1.27312085E-2,-3.5994694E-2,8.084409E-2,-3.7082855E-2,-1.5879081E-1,-3.4384664E-2,-2.1407399E-1,-1.3608173E-1,-2.3079196E-2,-4.6568997E-2,7.330164E-2,-1.2776838E-3,3.4590606E-2,2.5878555E-1,1.1208637E-1,-8.187567E-2,7.2773576E-2,-1.4552677E-2,-2.3276946E-2,5.404813E-2,1.3219206E-1,-4.4563796E-2,-5.21994E-2,-7.2890124E-3,-1.3678292E-2,-1.9449118E-1,-2.7333602E-1,-1.4964716E-1,-2.1450315E-2,-4.9622983E-2,1.910677E-2,4.9477443E-2,-5.9823506E-2,1.277253E-1,-1.5063731E-2,-4.115299E-3,8.5984014E-2,2.0075446E-2,1.3357492E-1,2.3814087E-1,1.0444297E-1,-5.530889E-3,1.3132189E-1,-5.336895E-2,-6.882885E-2,1.3517228E-2,8.619683E-2,-1.0145995E-2,9.571179E-4,2.1856658E-2,6.6787465E-3,3.6749255E-2,4.6140917E-2,-6.5789536E-2,-5.5793986E-2,-8.663118E-2,-7.69396E-2,-5.3393476E-2,-4.1607734E-2,-2.0391997E-2,-6.0777E-3,2.4618942E-2,8.5729273E-4,-4.7859474E-4,4.2740166E-2,-2.06661E-2,3.66959E-2,2.9177152E-2,4.849529E-2,-1.506013E-2,3.8991752E-3,6.522723E-3,-4.373325E-3,-4.101466E-2,3.2209057E-2,1.0366032E-2,-2.5946358E-2,1.2531057E-1,3.4990463E-2,7.469995E-2,6.269611E-2,5.4644663E-2,3.2927223E-2,-3.001635E-2,-1.0008254E-2,2.9032003E-2,2.272905E-2],"categories":[],"categories_nodes":[],"categories_segments":[],"categories_sizes":[],"default_left":[0,0,0,0,0,0,0,0,0,0,0,0,0,0,0,0,0,0,0,0,0,0,0,0,0,0,0,0,0,0,0,0,0,0,0,0,0,0,0,0,0,0,0,0,0,0,0,0,0,0,0,0,0,0,0,0,0,0,0,0,0,0,0,0,0,0,0,0,0,0,0,0,0,0,0,0,0,0,0,0,0,0,0,0,0,0,0,0,0,0,0,0,0,0,0,0,0,0,0,0,0],"id":12,"left_children":[1,3,5,7,9,11,13,15,17,19,21,23,25,27,29,31,33,-1,35,37,39,41,43,45,47,49,51,53,55,57,59,61,-1,63,65,-1,-1,-1,-1,67,69,71,-1,73,75,77,79,81,83,85,87,89,91,93,-1,-1,95,97,-1,-1,99,-1,-1,-1,-1,-1,-1,-1,-1,-1,-1,-1,-1,-1,-1,-1,-1,-1,-1,-1,-1,-1,-1,-1,-1,-1,-1,-1,-1,-1,-1,-1,-1,-1,-1,-1,-1,-1,-1,-1,-1],"loss_changes":[8.378057E1,5.760488E1,1.0052741E2,4.350904E1,5.457744E1,7.090165E1,7.0926765E1,1.5537219E1,3.8629913E-1,2.5221909E1,2.1979195E1,6.097636E1,7.357886E1,3.1201157E1,1.9569368E1,1.3812902E0,5.8900394E0,0E0,1.1265373E-1,1.0779047E-1,4.7803955E0,2.0033722E0,7.6736493E0,5.6318817E1,2.2576155E1,7.625565E1,1.0090907E2,4.292862E0,9.387306E0,7.685237E0,5.467367E-1,3.501737E-1,0E0,1.6829929E0,2.8892708E-1,0E0,0E0,0E0,0E0,6.209259E-1,1.94664E-1,5.6468964E-1,0E0,2.2649794E0,2.7076097E0,2.5479923E1,6.418202E1,2.9870338E0,1.7655389E0,8.069035E1,4.6193626E1,9.450706E1,4.3182755E1,5.589676E-1,0E0,0E0,3.5509644E0,1.4304886E0,0E0,0E0,1.0257435E-1,0E0,0E0,0E0,0E0,0E0,0E0,0E0,0E0,0E0,0E0,0E0,0E0,0E0,0E0,0E0,0E0,0E0,0E0,0E0,0E0,0E0,0E0,0E0,0E0,0E0,0E0,0E0,0E0,0E0,0E0,0E0,0E0,0E0,0E0,0E0,0E0,0E0,0E0,0E0,0E0],"parents":[2147483647,0,0,1,1,2,2,3,3,4,4,5,5,6,6,7,7,8,8,9,9,10,10,11,11,12,12,13,13,14,14,15,15,16,16,18,18,19,19,20,20,21,21,22,22,23,23,24,24,25,25,26,26,27,27,28,28,29,29,30,30,31,31,33,33,34,34,39,39,40,40,41,41,43,43,44,44,45,45,46,46,47,47,48,48,49,49,50,50,51,51,52,52,53,53,56,56,57,57,60,60],"right_children":[2,4,6,8,10,12,14,16,18,20,22,24,26,28,30,32,34,-1,36,38,40,42,44,46,48,50,52,54,56,58,60,62,-1,64,66,-1,-1,-1,-1,68,70,72,-1,74,76,78,80,82,84,86,88,90,92,94,-1,-1,96,98,-1,-1,100,-1,-1,-1,-1,-1,-1,-1,-1,-1,-1,-1,-1,-1,-1,-1,-1,-1,-1,-1,-1,-1,-1,-1,-1,-1,-1,-1,-1,-1,-1,-1,-1,-1,-1,-1,-1,-1,-1,-1,-1],"split_conditions":[-4.650762E-1,6.753348E-1,1.7957312E-1,-1.5640038E-1,4.7749702E-2,-8.5656863E-1,-1.3997924E-1,2.6499498E-1,-2.6819184E-1,4.9134027E-2,-1.007756E0,6.5890886E-2,-3.984937E-1,1.04584225E-1,1.7208654E-1,-2.8964052E-1,8.37887E-2,-3.7082855E-2,-2.3815039E-1,-2.9129443E-1,3.0592838E-1,-2.1273893E-1,-2.8514283E-2,9.057978E-2,-4.07778E-1,5.1042473E-1,3.4581935E-1,-3.0307493E-1,-1.0052507E0,-2.3870583E-1,8.386946E-1,-3.4533873E-1,-2.3276946E-2,-6.8754363E-1,-2.7600917E-1,-4.4563796E-2,-5.21994E-2,-7.2890124E-3,-1.3678292E-2,8.3722815E-2,-3.4533873E-1,-2.6999685E-1,-2.1450315E-2,2.0667903E-1,7.86101E-2,-3.2122365E-1,4.8201233E-1,-1.461191E0,1.3963738E-1,2.5343996E-1,7.6027215E-2,7.477259E-1,3.977878E-2,-3.2899618E-1,1.0444297E-1,-5.530889E-3,9.2236266E-2,8.0826616E-1,-6.882885E-2,1.3517228E-2,-3.2899618E-1,-1.0145995E-2,9.571179E-4,2.1856658E-2,6.6787465E-3,3.6749255E-2,4.6140917E-2,-6.5789536E-2,-5.5793986E-2,-8.663118E-2,-7.69396E-2,-5.3393476E-2,-4.1607734E-2,-2.0391997E-2,-6.0777E-3,2.4618942E-2,8.5729273E-4,-4.7859474E-4,4.2740166E-2,-2.06661E-2,3.66959E-2,2.9177152E-2,4.849529E-2,-1.506013E-2,3.8991752E-3,6.522723E-3,-4.373325E-3,-4.101466E-2,3.2209057E-2,1.0366032E-2,-2.5946358E-2,1.2531057E-1,3.4990463E-2,7.469995E-2,6.269611E-2,5.4644663E-2,3.2927223E-2,-3.001635E-2,-1.0008254E-2,2.9032003E-2,2.272905E-2],"split_indices":[31,121,169,166,389,35,28,151,0,7,372,389,167,318,14,0,23,0,0,0,5,3,4,79,2,150,194,0,13,0,1,0,0,56,0,0,0,0,0,14,0,3,0,42,8,179,69,9,7,270,47,238,344,0,0,0,48,1,0,0,0,0,0,0,0,0,0,0,0,0,0,0,0,0,0,0,0,0,0,0,0,0,0,0,0,0,0,0,0,0,0,0,0,0,0,0,0,0,0,0,0],"split_type":[0,0,0,0,0,0,0,0,0,0,0,0,0,0,0,0,0,0,0,0,0,0,0,0,0,0,0,0,0,0,0,0,0,0,0,0,0,0,0,0,0,0,0,0,0,0,0,0,0,0,0,0,0,0,0,0,0,0,0,0,0,0,0,0,0,0,0,0,0,0,0,0,0,0,0,0,0,0,0,0,0,0,0,0,0,0,0,0,0,0,0,0,0,0,0,0,0,0,0,0,0],"sum_hessian":[4.58056E5,2.1519E4,4.36537E5,7.244E3,1.4275E4,4.27121E5,9.416E3,5.834E3,1.41E3,5.126E3,9.149E3,4.8929E4,3.78192E5,6.108E3,3.308E3,1.549E3,4.285E3,5.22E2,8.88E2,9.62E2,4.164E3,2.298E3,6.851E3,4.4236E4,4.693E3,3.07958E5,7.0234E4,2.371E3,3.737E3,1.829E3,1.479E3,1.023E3,5.26E2,2.817E3,1.468E3,5.37E2,3.51E2,5.08E2,4.54E2,3.133E3,1.031E3,1.898E3,4E2,4.205E3,2.646E3,5.364E3,3.8872E4,2.904E3,1.789E3,2.9826E5,9.698E3,6.1253E4,8.981E3,1.929E3,4.42E2,4.8E2,3.257E3,1.534E3,2.95E2,4.84E2,9.95E2,4.9E2,5.33E2,1.769E3,1.048E3,1.018E3,4.5E2,7.94E2,2.339E3,5.3E2,5.01E2,5.25E2,1.373E3,2.587E3,1.618E3,5.42E2,2.104E3,3.463E3,1.901E3,3.703E4,1.842E3,1.532E3,1.372E3,7.94E2,9.95E2,8.5917E4,2.12343E5,8.49E2,8.849E3,5.3927E4,7.326E3,5.04E2,8.477E3,1.4E3,5.29E2,9.68E2,2.289E3,4.59E2,1.075E3,4.9E2,5.05E2],"tree_param":{"num_deleted":"0","num_feature":"512","num_nodes":"101","size_leaf_vector":"1"}},{"base_weights":[-5.513931E-8,-1.9162598E-3,6.5353274E-2,4.961068E-3,-2.502281E-2,1.5462738E-1,1.811423E-2,-1.3504616E-2,1.7160116E-2,-8.356166E-2,-1.1750364E-2,1.1705594E-1,2.3276791E-1,3.839608E-2,-1.4775842E-1,7.676789E-2,-1.9732518E-2,-3.9513586E-3,3.680717E-2,-1.1498194E-1,-7.507887E-2,-4.3260183E-2,1.7672693E-2,8.6715095E-2,1.4716163E-1,2.5520042E-1,5.6488108E-2,7.614437E-2,2.3643349E-3,-3.1024393E-2,-6.090549E-2,1.6913375E-2,2.3993586E-1,-6.976311E-2,-9.675931E-3,-2.1780988E-2,4.8221298E-2,-2.4252184E-1,4.040668E-2,-1.8925648E-2,-1.2081707E-1,4.3899164E-2,-5.9833635E-2,7.016564E-2,-2.6367934E-2,2.2505455E-2,9.269284E-2,4.1297834E-2,4.5562603E-2,7.277745E-2,8.065536E-2,5.169281E-2,6.422434E-2,1.9157892E-2,-4.7556072E-2,-8.36646E-3,3.528542E-2,-3.0309278E-1,7.515033E-2,3.1749353E-2,-2.6091706E-2,-2.1103099E-2,-8.473885E-4,-3.5668895E-2,-2.329615E-3,3.6266826E-2,-7.917595E-5,-6.069073E-2,-8.0378935E-2,-2.91766E-3,1.7702412E-2,1.3579559E-2,-1.8650344E-2,-4.604137E-2,-1.362531E-2,5.1551323E-2,-3.573091E-3,-2.8428497E-2,-6.3751736E-3,9.683384E-3,5.47313E-2,-4.2799987E-2,1.4794741E-3,2.6490249E-2,2.9096015E-2,-4.0679513E-3,2.2757646E-2,6.8537393E-3,6.862639E-5,-1.3585549E-2,-1.4923099E-2],"categories":[],"categories_nodes":[],"categories_segments":[],"categories_sizes":[],"default_left":[0,0,0,0,0,0,0,0,0,0,0,0,0,0,0,0,0,0,0,0,0,0,0,0,0,0,0,0,0,0,0,0,0,0,0,0,0,0,0,0,0,0,0,0,0,0,0,0,0,0,0,0,0,0,0,0,0,0,0,0,0,0,0,0,0,0,0,0,0,0,0,0,0,0,0,0,0,0,0,0,0,0,0,0,0,0,0,0,0,0,0],"id":13,"left_children":[1,3,5,7,9,11,13,15,17,19,21,23,25,27,29,31,33,35,37,-1,39,41,43,45,47,49,-1,51,53,-1,-1,55,57,59,61,63,65,67,69,71,73,75,77,79,81,-1,83,-1,-1,-1,-1,-1,85,87,89,-1,-1,-1,-1,-1,-1,-1,-1,-1,-1,-1,-1,-1,-1,-1,-1,-1,-1,-1,-1,-1,-1,-1,-1,-1,-1,-1,-1,-1,-1,-1,-1,-1,-1,-1,-1],"loss_changes":[5.736276E1,7.071725E1,5.5023537E1,7.725218E1,7.930347E1,1.3228119E1,2.871579E1,7.670303E1,8.565683E1,4.7933426E1,7.714324E1,2.7741203E0,1.4135361E0,1.034366E1,2.257906E0,8.598856E1,6.421219E1,9.260157E1,1.0755855E2,0E0,4.71192E1,5.8042442E1,9.947725E1,9.9466324E-2,4.762268E-2,1.0190582E-1,0E0,4.246254E0,3.2637353E0,0E0,0E0,2.9072342E1,3.1466324E1,6.455579E1,4.416958E1,1.00985405E2,8.9334045E1,1.3365936E0,9.8481094E1,2.2866673E1,2.4887344E1,4.5842026E1,4.5493965E1,8.349905E1,8.517522E1,0E0,1.0351181E-2,0E0,0E0,0E0,0E0,0E0,2.9928865E0,2.0334792E-1,2.6156902E-3,0E0,0E0,0E0,0E0,0E0,0E0,0E0,0E0,0E0,0E0,0E0,0E0,0E0,0E0,0E0,0E0,0E0,0E0,0E0,0E0,0E0,0E0,0E0,0E0,0E0,0E0,0E0,0E0,0E0,0E0,0E0,0E0,0E0,0E0,0E0,0E0],"parents":[2147483647,0,0,1,1,2,2,3,3,4,4,5,5,6,6,7,7,8,8,9,9,10,10,11,11,12,12,13,13,14,14,15,15,16,16,17,17,18,18,20,20,21,21,22,22,23,23,24,24,25,25,27,27,28,28,31,31,32,32,33,33,34,34,35,35,36,36,37,37,38,38,39,39,40,40,41,41,42,42,43,43,44,44,46,46,52,52,53,53,54,54],"right_children":[2,4,6,8,10,12,14,16,18,20,22,24,26,28,30,32,34,36,38,-1,40,42,44,46,48,50,-1,52,54,-1,-1,56,58,60,62,64,66,68,70,72,74,76,78,80,82,-1,84,-1,-1,-1,-1,-1,86,88,90,-1,-1,-1,-1,-1,-1,-1,-1,-1,-1,-1,-1,-1,-1,-1,-1,-1,-1,-1,-1,-1,-1,-1,-1,-1,-1,-1,-1,-1,-1,-1,-1,-1,-1,-1,-1],"split_conditions":[1.8052419E-1,6.1361942E-2,3.8825417E-1,-4.549335E-1,-6.728521E-1,5.49562E-1,1.993454E-1,3.6619267E-1,4.7021788E-1,-7.2259843E-1,-5.484553E-1,9.3922794E-2,1.2285279E0,3.0824575E-1,-2.8045002E-1,-5.505075E-1,-1.0809499E-1,2.877652E-1,5.431996E-1,-1.1498194E-1,-7.415397E-2,-1.0333256E-1,-6.846986E-2,-2.9129443E-1,9.201558E-1,-2.3120083E-1,5.6488108E-2,7.8348714E-1,3.0638862E-1,-3.1024393E-2,-6.090549E-2,-3.4582266E-1,1.0662196E0,-2.4306346E-1,-1.6533221E-1,2.609361E-1,-5.3961796E-1,-3.4533873E-1,-2.6576817E-2,2.9373068E-1,-5.4826297E-2,-1.0407445E0,4.5520696E-1,8.37887E-2,3.1763822E-1,2.2505455E-2,-2.271654E-1,4.1297834E-2,4.5562603E-2,7.277745E-2,8.065536E-2,5.169281E-2,-2.6999685E-1,2.1303825E-1,-3.0805436E-1,-8.36646E-3,3.528542E-2,-3.0309278E-1,7.515033E-2,3.1749353E-2,-2.6091706E-2,-2.1103099E-2,-8.473885E-4,-3.5668895E-2,-2.329615E-3,3.6266826E-2,-7.917595E-5,-6.069073E-2,-8.0378935E-2,-2.91766E-3,1.7702412E-2,1.3579559E-2,-1.8650344E-2,-4.604137E-2,-1.362531E-2,5.1551323E-2,-3.573091E-3,-2.8428497E-2,-6.3751736E-3,9.683384E-3,5.47313E-2,-4.2799987E-2,1.4794741E-3,2.6490249E-2,2.9096015E-2,-4.0679513E-3,2.2757646E-2,6.8537393E-3,6.862639E-5,-1.3585549E-2,-1.4923099E-2],"split_indices":[305,491,237,167,56,163,427,490,40,19,170,12,1,391,0,170,87,54,453,0,421,371,242,0,1,0,0,1,5,0,0,477,1,95,206,194,309,0,432,120,165,211,129,23,69,0,0,0,0,0,0,0,3,7,0,0,0,0,0,0,0,0,0,0,0,0,0,0,0,0,0,0,0,0,0,0,0,0,0,0,0,0,0,0,0,0,0,0,0,0,0],"split_type":[0,0,0,0,0,0,0,0,0,0,0,0,0,0,0,0,0,0,0,0,0,0,0,0,0,0,0,0,0,0,0,0,0,0,0,0,0,0,0,0,0,0,0,0,0,0,0,0,0,0,0,0,0,0,0,0,0,0,0,0,0,0,0,0,0,0,0,0,0,0,0,0,0,0,0,0,0,0,0,0,0,0,0,0,0,0,0,0,0,0,0],"sum_hessian":[4.58056E5,4.45009E5,1.3047E4,3.42939E5,1.0207E5,4.514E3,8.533E3,1.36428E5,2.06511E5,1.8864E4,8.3206E4,3.05E3,1.464E3,7.604E3,9.29E2,8.804E3,1.27624E5,9.9546E4,1.06965E5,5.18E2,1.8346E4,4.0178E4,4.3028E4,1.521E3,1.529E3,9.7E2,4.94E2,3.713E3,3.891E3,5.17E2,4.12E2,6.442E3,2.362E3,2.1359E4,1.06265E5,7.4192E4,2.5354E4,1.36E3,1.05605E5,8.236E3,1.011E4,6.419E3,3.3759E4,1.963E4,2.3398E4,5.19E2,1.002E3,5.17E2,1.012E3,5.14E2,4.56E2,4.08E2,3.305E3,2.912E3,9.79E2,4.459E3,1.983E3,1.9E1,2.343E3,1.906E3,1.9453E4,1.0782E4,9.5483E4,9.356E3,6.4836E4,1.0146E4,1.5208E4,5.3E2,8.3E2,2.858E4,7.7025E4,3.315E3,4.921E3,7.054E3,3.056E3,1.949E3,4.47E3,1.7718E4,1.6041E4,1.4678E4,4.952E3,4.961E3,1.8437E4,5.06E2,4.96E2,4.3E2,2.875E3,2.437E3,4.75E2,4.91E2,4.88E2],"tree_param":{"num_deleted":"0","num_feature":"512","num_nodes":"91","size_leaf_vector":"1"}},{"base_weights":[-3.767162E-7,8.91301E-3,-1.05871605E-2,1.3770707E-2,-4.6062894E-2,3.0283911E-2,-1.9054266E-2,7.820841E-3,5.2039444E-2,-1.0626404E-1,7.2129857E-4,-6.974171E-2,4.697552E-2,2.9258292E-2,-2.6323777E-2,2.0408764E-2,-1.7165879E-2,7.156218E-3,9.088461E-2,-1.5728638E-1,-1.6989527E-2,-4.5580637E-2,7.9986945E-2,-1.1178801E-2,-2.1702258E-1,1.0619414E-1,2.0014655E-3,3.3026976E-3,8.3422355E-2,8.645764E-3,-3.888071E-2,-5.099476E-3,3.8375948E-2,-1.0633019E-1,-8.261743E-3,5.4392327E-2,-3.722936E-2,4.6521362E-2,1.4225322E-1,-1.3582912E-1,-2.8375423E-1,-6.655972E-2,1.2963999E-2,-1.4506239E-1,-2.1665486E-2,1.480752E-1,2.0305347E-2,1.3354336E-1,-4.194169E-2,-1.6728762E-1,-9.7498395E-2,1.4211462E-3,1.349694E-1,7.662324E-2,-3.1728607E-2,5.816831E-2,-2.4310574E-2,1.1429395E-1,3.345718E-2,1.2935798E-1,-1.1223795E-2,-1.07961185E-2,-6.0236804E-2,5.2571604E-3,-2.5447788E-2,1.6566165E-2,-4.676825E-3,-6.4404115E-2,-1.1969181E-2,3.3659505E-4,-2.8364994E-2,